computer	0.058911 -0.140376 0.0911008 0.064501 -0.0301341 0.145005 0.0511416 0.0469726 -0.0729692 0.00204165 -0.0728236 -0.133632 0.126858 -0.12457 -0.03571 0.00687349 0.14709 -0.0601219 0.0221721 0.0619239 0.0455746 -0.0038046 -0.0577413 -0.0296987 -0.211738 -0.0694993 0.026104 0.0417802 0.0201035 -0.0550384 0.0748782 -0.0917277 0.023967 -0.0534892 0.251932 0.00241826 -0.142488 0.0805373 -0.0323809 -0.00537337 0.10976 -0.0215742 -0.0125998 0.00433618 -0.0494904 0.0125016 0.0952175 0.0392137 -0.143836 0.0787676 -0.0458778 -0.0168316 -0.189734 0.0373784 0.13477 -0.0516667 0.0262219 -0.0866469 -0.102784 -0.0305712 -0.0728257 -0.186742 0.0754177 -0.0372189 -0.00394022 0.0962156 0.0301231 -0.101986 -0.0692512 0.0797563 0.211662 0.111838 -0.105985 0.113328 0.0460982 -0.129706 0.384646 0.0375019 -0.00837694 0.0598006 -0.151706 0.0553031 0.0208562 0.0797815 0.00114457 0.066348 0.0629983 -0.0146046 0.0566308 0.118857 -0.147741 0.0903978 -0.18644 -0.0896286 -0.217299 0.045688 -0.0508917 0.0107285 0.0163461 -0.163362
computing	-0.0460889 -0.167994 -0.0327296 0.0980913 0.0399942 0.106395 0.00992137 0.0481446 -0.077202 0.107112 -0.0624016 -0.198744 0.100058 -0.0645858 -0.0675474 0.0924485 0.174522 -0.0416482 0.113814 -7.77663e-05 -0.0156506 -0.0769736 0.0334719 -0.0457898 -0.17006 -0.0941032 0.0434808 0.0231591 0.0630218 -0.0640163 -0.0299019 -0.0970915 -0.0409876 0.0852757 0.235447 -0.00133139 -0.111584 0.121546 -0.0835494 -0.106818 0.0805757 0.0359387 -0.0703419 0.0624113 -0.0575747 -0.0207258 0.136368 0.0873683 -0.140922 0.106919 -0.049252 -0.0357587 -0.179831 -0.0349146 0.0801417 -0.00469696 0.0450973 -0.131534 0.0368967 0.063887 -0.0255157 -0.128921 -0.0469345 -0.0684137 0.0780794 0.136664 0.0454855 -0.205769 -0.0432556 0.100846 0.161753 0.083346 -0.0742892 0.069797 0.0933517 -0.0796101 0.209236 -0.00137445 -0.0575394 0.0341132 -0.219655 0.00539943 0.104964 0.148724 -0.0651038 0.0374557 0.142155 -0.0138931 0.0990405 0.0169512 -0.16452 0.0753557 -0.137289 -0.172179 -0.205562 -0.0283527 0.146145 0.0195704 0.0201669 -0.0990487
software	0.0433798 -0.142271 0.00205142 0.106218 -0.00191838 0.114353 0.0483355 0.0763976 -0.103856 0.029678 -0.174839 -0.115956 0.0552088 -0.165857 -0.0302677 -0.0156818 -0.00820723 -0.0780781 -0.00858548 0.059084 -0.0268181 -0.0398151 -0.00851978 -0.0838246 -0.162173 -0.218048 0.0887689 0.055505 -0.00823144 -0.0298061 -0.00111145 -0.0801818 0.0198173 -0.0618104 0.0768899 -0.000857322 -0.113038 0.157786 -0.0304549 -0.0695317 0.0524218 0.113909 -0.0238089 -0.0502687 0.0155805 0.0166615 0.175946 0.0733188 -0.164747 0.00218089 -0.0575489 -0.101186 -0.196448 0.00358274 0.091192 -0.0788139 0.121742 -0.0802182 0.05898 0.012095 -0.105888 -0.188941 0.047284 -0.0773052 -0.0762235 0.172032 -0.00112371 -0.129922 -0.023403 -0.0750931 0.0369272 0.122296 -0.0134097 0.109341 0.0468924 -0.0606407 0.298455 0.0568934 0.00543927 -0.00261392 -0.114454 -0.0454761 0.0722376 0.166389 0.095351 0.186157 0.14512 -0.0398372 0.112378 0.135409 -0.155505 0.18614 -0.116368 -0.0957503 -0.209176 0.0324832 -0.0187946 0.0432226 0.00869574 -0.0657361
microcomputer	-0.0564982 -0.0660565 0.0936933 0.106067 -0.12845 0.165281 0.00946147 0.0944197 -0.00463852 -0.133376 -0.0356234 -0.193435 0.128495 -0.0400168 0.0462208 0.0510223 0.078023 -0.117315 0.122439 0.0768334 0.069006 -0.0511665 -0.0904838 -0.034378 -0.138417 -0.0153043 0.0700115 0.00413079 0.00829419 0.0159856 -0.0214384 -0.104516 0.113195 -0.00878608 0.250475 -0.0131683 -0.0549983 0.0851383 -0.0305604 -0.098701 0.143003 -0.00469215 0.00197056 -0.0131438 0.112652 -0.0255478 0.0307222 0.162273 -0.140011 0.0449705 -0.199965 -0.0133856 -0.193076 0.00623946 0.051111 0.0364255 0.125122 -0.13941 0.0221575 0.030687 -0.0986091 -0.216596 0.0314522 0.0279674 -0.0281043 0.145437 0.0928373 -0.0765696 -0.104043 0.0531471 0.146715 0.0460835 -0.0363746 0.118084 0.0968495 -0.0747286 0.232473 0.112165 0.0301315 0.0375274 -0.1893 0.0331204 -0.0422455 0.0811256 0.00382832 0.132428 0.0684911 0.0459529 -0.00919412 0.257393 -0.0228712 0.0571565 -0.11555 -0.132169 -0.168329 -0.0147165 0.0426281 -0.0124925 -0.00859888 -0.129007
workstation	-0.0293719 -0.102866 0.129294 0.114455 -0.017923 0.11275 0.0432469 0.0326752 -0.0189457 -0.0055315 -0.138468 -0.0948299 -0.0093982 -0.052782 -0.0350074 -0.0214876 0.0939705 -0.113057 0.0387544 0.0991146 0.0294147 0.0753711 -0.0931589 -0.081853 -0.206415 -0.0948407 0.132662 0.0257552 -0.0193831 -0.054929 -0.0178451 -0.00235529 0.0936088 0.000867311 0.163819 -0.0024578 -0.0596541 0.129245 -0.125934 -0.0832171 -0.0456531 -0.00402279 0.087114 0.102253 -0.0177259 -0.0638356 0.122793 0.241065 -0.200589 0.106063 -0.113955 -0.0567881 -0.209437 0.0433789 0.134361 -0.0618691 0.0982943 -0.0144596 0.00615436 -0.0179918 -0.0351879 -0.142152 0.0826352 -0.0545812 -0.0234272 0.180631 -0.0217909 -0.151211 0.00532365 -0.0276202 0.125299 0.135518 0.0228117 0.0558272 -0.00945628 -0.174948 0.287392 0.095584 -0.0339809 0.0576575 -0.171536 0.109715 -0.00421718 0.0598787 -0.0674299 0.13224 0.000626642 0.0871757 0.0112278 0.0836302 -0.0905915 0.194204 -0.138252 -0.0793452 -0.0605067 0.095485 -0.0376254 0.0695474 -0.104941 -0.151363
hardware	0.0225772 -0.15073 0.0540187 0.0436665 -0.0057073 0.115772 -0.0287684 0.077056 -0.0105893 0.00282518 -0.191258 -0.065394 0.0711538 -0.183512 0.0484625 -0.0227705 -0.0247625 -0.079279 0.108611 0.107516 0.0171485 -0.0750943 -0.0867537 -0.0138562 -0.169845 -0.0712702 0.075225 -0.00650367 0.0661221 -0.107914 0.116787 0.020686 -0.0099002 -0.0209987 0.160254 0.00618019 -0.0754742 0.12158 0.0362884 -0.0540002 -0.0566842 0.0765139 0.00563294 -0.0965556 0.0685255 -0.0264568 0.0943912 0.113878 -0.204882 0.035898 -0.0421914 -0.0244007 -0.180619 -0.0127551 0.195791 -0.0361613 0.174829 -0.0257021 -0.0157865 0.0395924 -0.161608 -0.05946 0.0857709 0.0499307 -0.0388944 0.0917881 -0.0917235 -0.11354 0.0131643 -0.100957 0.105638 0.185982 -0.143386 0.123929 0.0644687 -0.0190883 0.344041 0.16153 0.0616995 0.0303955 -0.163654 0.0159496 -0.00386372 0.110002 0.0201567 0.174118 0.0305118 0.0494677 0.0511423 0.158542 -0.138118 0.115896 -0.0240087 -0.0944251 -0.18008 0.0318028 0.024645 0.0356641 -0.0377356 -0.107391
realtime	0.0673361 -0.0346612 0.132795 0.122924 0.0264953 0.129217 -0.0255008 0.108491 -0.0696308 0.0812185 -0.0235655 -0.0179441 0.0894032 -0.177856 -0.0406845 -0.12812 0.0325982 0.0991136 0.0326535 0.158616 -0.0245834 0.00357169 -0.0972056 -0.0350876 -0.15522 -0.0902383 0.00982033 0.0848237 -0.00517678 0.0777972 0.169856 -0.134948 0.0646993 -0.0436832 0.12795 0.0662516 -0.0780253 0.169829 -0.163883 0.00446749 0.0936572 0.0416756 -0.0298297 0.0834897 0.05231 0.0660326 0.117464 -0.00955829 -0.0508768 0.0220284 -0.0590611 -0.0699634 -0.204072 0.0424984 0.144917 -0.0681088 0.143118 -0.0535616 0.0359165 0.0412828 -0.103991 -0.111072 0.0818662 -0.0420695 -0.062471 0.0845579 -0.0372417 -0.0970657 0.0697699 -0.0248658 0.285874 0.191556 0.0284122 0.11066 0.0249077 -0.0590491 0.242284 0.0262327 -0.00886059 0.0576968 -0.108644 -0.0662347 0.063552 0.0990096 0.0407816 0.191258 0.0826085 0.00563502 0.14085 0.0276032 -0.169999 0.195462 -0.0996164 -0.0236151 -0.185467 0.0919932 -0.0218699 0.0927108 -0.0539369 -0.0136905
coprocessor	0.017994 -0.0915867 0.0314945 0.0514239 -0.124391 0.0656787 -0.00103989 0.00512716 0.0405662 0.0169368 -0.136595 -0.0961578 0.0981166 -0.165858 0.033457 -0.0037012 0.0105227 -0.130643 0.153538 0.143475 0.0205357 -0.0271716 -0.0366118 -0.0558216 -0.186521 -0.0907057 0.0871816 -0.064532 0.0617583 0.0289546 -0.0154474 -0.0135783 -0.012384 -0.0656069 0.215884 -0.00910547 -0.0359333 0.067696 0.0239388 0.0148066 0.0680524 -0.0155293 3.5893e-05 0.0717927 0.0573537 -0.0262979 -0.105352 0.117676 -0.0926651 0.185361 -0.0576591 -0.0172526 -0.12909 0.0256944 0.122818 0.0199339 0.0618845 -0.0294366 -0.0779249 0.158397 0.0352854 -0.183049 0.0260753 -0.07816 -0.0758938 0.179005 0.0579343 -0.0596371 0.00640836 -0.00855246 0.212128 0.191625 -0.187533 0.149218 0.0478602 -0.0397537 0.352493 0.151787 0.0636327 0.0245184 -0.191441 0.062606 -0.0481009 -0.00950473 -0.0508913 0.0604257 0.00764337 0.0746475 0.0461132 0.112806 -0.0728961 0.00106992 -0.0432293 -0.0748937 -0.0298007 0.129469 0.0806093 0.107127 -0.00803116 -0.247805
desktop	-0.0208513 -0.0809028 0.096263 -0.0097505 -0.0387672 0.0635892 0.0152181 -0.00237585 -0.0978384 -0.07935 -0.187797 -0.112581 -0.0191634 -0.104381 0.00468648 -0.0516448 0.0440014 0.0149263 0.0520822 0.0961483 0.0199195 0.0117383 -0.0767719 -0.0475854 -0.155548 -0.150107 0.136533 0.0827208 -0.0178501 0.00901175 0.0181165 -0.069968 0.0550322 0.0615681 0.0703507 -0.000356497 -0.0966982 0.138935 -0.0110385 -0.0920435 0.0325746 0.139801 -0.0699684 0.112473 0.0264589 -0.0567951 0.0652101 0.13714 -0.266855 0.100223 -0.108736 0.002547 -0.0778153 0.0252361 0.121852 -0.0422854 0.126572 0.00744112 -0.0257841 -0.10944 -0.14248 -0.244273 0.00389961 -0.0237069 0.0062464 0.15677 0.00959715 -0.136396 -0.0432661 -0.0283986 0.129419 0.0412398 -0.0252186 0.0788309 0.0196106 -0.10734 0.300721 0.0902172 -0.097964 -0.0554363 -0.157309 0.0602265 -0.0381805 0.096413 0.0997673 0.103387 0.123236 0.0294187 0.0327302 0.154244 -0.0547125 0.238197 -0.180356 -0.0720224 -0.116978 -0.0491463 0.057175 0.0945681 -0.153538 -0.123211
macintosh	-0.0387367 -0.0587705 0.168277 0.0892112 0.004951 0.0972248 0.0619752 0.0307412 -0.0281284 -0.0750615 -0.0693098 -0.1031 -0.0459948 -0.0819437 -0.0287364 -0.129307 0.0407968 -0.0777261 0.0335951 0.105518 0.0798687 0.0296411 -0.0942143 -0.0123187 -0.0819129 -0.0452196 0.130516 0.0836355 -0.0837231 0.045179 -0.00354942 -0.0722247 0.0142198 -0.0109905 0.208136 -0.0143844 0.00943029 0.0480398 0.0091277 -0.0752805 0.0492077 -0.00225486 0.0176975 -0.0334229 0.0590496 0.0718331 -0.00182854 0.132373 -0.131236 0.0997295 -0.18961 0.0473683 -0.225907 -0.00340044 0.175259 -0.01983 0.114326 -0.147279 -0.109736 -0.0957368 -0.157434 -0.166344 0.0641808 0.0199193 -0.0496883 0.160265 -0.044335 -0.2113 -0.130127 -0.0463207 0.108303 0.018941 -0.108956 0.0847319 0.00544784 -0.10645 0.241595 0.130059 -0.0655575 -0.10503 -0.192743 0.100276 -0.0295465 0.0904861 0.00563016 0.188753 0.0600719 0.136933 0.064335 0.150579 -0.0568111 0.151642 -0.116627 -0.0494871 -0.14605 -0.0227845 0.0703881 0.0883236 -0.0883824 -0.133113
laptop	0.0958295 -0.0604901 0.0974238 0.0089097 0.0527122 0.0654737 0.0175487 -0.0591153 -0.162555 -0.178079 -0.144003 -0.167692 -0.0211537 -0.0853296 -0.0549866 0.122062 0.0659395 -0.0944622 -0.0108316 0.084931 0.0265738 0.0530568 -0.0549973 0.0530005 -0.159622 -0.0642277 0.162825 0.0211428 -0.0549278 -0.113624 0.0704868 0.078387 -0.0888393 -0.000477078 0.165564 -0.0533001 -0.100762 0.0907135 -0.0252871 -0.00190498 0.0744062 0.141643 0.0314446 0.10862 0.0480233 0.0622362 0.0330684 0.119533 -0.107346 0.141442 -0.0911322 0.0235596 -0.0770739 0.0856329 0.1335 -0.0559295 0.120534 -0.0173191 -0.11863 -0.129871 -0.116429 -0.103595 0.108689 -0.116882 -0.0461962 0.0916525 0.059791 -0.225727 0.00913991 -0.00319358 0.220108 0.0734161 -0.0792645 0.0749885 0.0686899 -0.198028 0.354494 0.0367264 0.0717163 0.0334286 -0.00041466 0.110627 -0.0966774 0.0838313 -0.0163995 0.0957353 0.00408445 0.103651 -0.0316163 0.144358 -0.154376 0.0042081 -0.0834358 -0.0416889 -0.0493312 0.00382548 0.0553741 0.0179921 -0.0459139 -0.11834
calculator	-0.0345911 -0.0608121 -0.0213538 -0.0185845 -0.275473 0.125778 -0.0789119 -0.0245415 -0.0452892 -0.132807 -0.0987121 -0.123541 0.0645747 -0.174038 -0.0441638 0.0979185 0.0335366 -0.207962 0.103151 0.118904 -0.0337878 -0.0775153 -0.00811299 -0.110651 -0.187345 0.00717407 0.0140221 0.0160422 0.136119 -0.0534115 -0.062773 -0.0160219 0.0593207 0.0592065 0.193031 0.0645546 0.0206189 -0.00240592 -0.114815 -0.000735828 0.120062 0.0417885 0.00850067 0.0269324 0.000327895 -0.0230386 0.0525741 0.087289 -0.138354 0.105579 -0.0506666 -0.00748531 -0.192204 0.0480141 0.18582 -0.0166045 0.147319 -0.0324106 -0.172574 -0.0314091 -0.0939113 -0.15021 0.0765408 -0.014839 -0.0640759 0.0820667 0.15452 -0.169093 -0.0991922 0.110339 0.190391 -0.000648154 -0.0374522 0.0605808 -0.0477338 -0.0649498 0.210548 0.0590919 0.00265249 0.081008 -0.123901 -0.0505039 -0.0444182 0.0582053 0.0177806 0.0680062 -0.0244295 -0.0155839 -0.0327945 0.240815 -0.0742934 0.0947733 -0.195307 -0.0536774 -0.0691788 -0.0321435 0.0706737 0.0206758 -0.0678053 -0.142776
interface	-0.0261331 -0.0987542 0.0898042 0.116155 -0.07146 0.0480185 0.0441394 0.0751648 0.0303752 0.0734572 -0.0663214 -0.0419063 0.0582021 -0.261545 0.00593946 -0.00411348 -0.0143813 -0.115906 0.025748 0.0276576 -0.0236196 -0.00570636 -0.10444 -0.108929 -0.151445 -0.118334 0.139421 0.00209597 0.00357548 0.016833 0.0908514 -0.111246 0.128631 -0.0491881 0.0524049 -0.0242877 -0.127589 0.0603871 0.0707313 -0.00186899 -0.0647664 0.0416694 -0.10943 0.0571051 0.0296233 0.011129 0.0252053 0.0162725 -0.217897 0.145477 -0.0956077 0.00326831 -0.0934836 0.015985 0.158184 0.0230052 0.179895 -0.0615764 0.0178079 -0.0741568 -0.0175924 -0.167478 0.0239004 -0.054526 -0.0854218 0.106073 0.00535583 -0.122072 0.00911468 -0.0074987 0.191055 0.129345 -0.049827 0.233259 0.0443858 -0.061845 0.254774 0.0129247 -0.0242103 0.025563 -0.0535428 -0.0272366 -0.075054 0.109913 0.086709 0.0630022 0.14505 0.0300241 0.161408 -0.00102207 -0.0869763 0.153869 -0.263309 -0.112944 -0.148528 -0.00698363 0.0430334 0.221475 -0.0808454 -0.0830009
programmer	0.078067 -0.0725981 0.00199402 -0.02804 0.00352821 0.126117 0.0662667 0.017566 -0.0272402 -0.00388906 -0.117031 -0.0932894 0.0885665 -0.089764 0.064445 -0.110719 0.0419951 -0.100844 0.0510894 0.0622078 0.0699995 0.0434291 -0.0597726 -0.129632 -0.160776 -0.123439 -0.0742347 -0.0324205 -0.0220056 0.0298272 0.05255 -0.0865773 0.198454 -0.15839 0.102128 0.0116989 -0.0567093 0.00518764 0.0186009 0.00716138 0.0836136 0.117052 0.062623 -0.0531682 0.0713487 0.112618 0.10095 0.0456842 -0.0549662 0.0835724 -0.165955 -0.0425477 -0.224451 0.0353793 0.0247747 0.00945204 0.123176 -0.172847 -0.0127237 0.0996084 -0.063481 -0.128189 0.0528437 -0.0504911 -0.0413636 0.178391 0.0311051 -0.0761633 -0.164581 -0.104091 0.197963 0.148528 -0.118835 0.16373 0.0540469 -0.0524284 0.209754 0.0928549 -0.0142301 -0.0734863 -0.0908029 -0.0525863 0.183807 0.0612267 -0.0536757 0.176009 0.054748 -0.0322802 0.10924 0.175608 -0.0597023 0.206717 -0.178236 -0.0997587 -0.17227 -0.0215015 0.0107975 0.0733929 0.000229206 -0.03059
vlsi	-0.0267443 -0.106787 0.138257 0.114206 -0.118507 0.018282 -0.00735739 0.129888 0.0415595 0.0604954 -0.0275852 -0.129239 0.0591995 -0.067011 0.044131 -0.0204769 0.128158 -0.0982482 0.0730646 -0.00640081 -0.0521783 -0.0440675 0.0984353 -0.0572095 -0.0972682 -0.00802813 0.112042 -0.0468474 -0.00426175 -0.107451 0.00942082 -0.0748109 0.112991 0.0444352 0.182131 0.0309654 -0.087677 0.121197 -0.0630179 -0.0586377 0.0803971 -0.0182909 0.0185992 0.119331 0.030466 -0.0170333 0.0318793 0.153301 -0.191173 0.114722 -0.0123518 -0.0243363 -0.251114 -0.0856872 0.0163636 0.0169184 0.0894454 -0.0789839 0.0337511 0.0457644 -0.00750977 -0.0401075 -0.0327585 -0.0686796 -0.108117 0.163598 0.0495049 -0.0945155 0.0113428 0.0637511 0.0674789 0.0982559 -0.0633622 0.109466 -0.00696518 -0.0308488 0.287799 0.139983 0.217792 -0.0152991 -0.0891234 0.0575918 0.080853 0.122056 -0.0642207 0.0653103 0.107096 -0.071059 0.0584464 0.195328 -0.163978 -0.0174564 -0.210004 -0.169394 -0.228751 -0.0133817 0.122893 -0.102151 -0.00366796 -0.126267
technology	0.122147 -0.142121 0.089714 0.124937 0.112098 0.186338 0.00154983 0.0679465 -0.0482205 -0.0600228 -0.0656336 -0.135675 0.11038 -0.0413657 -0.149154 -0.029615 0.0657828 0.0184902 -0.0641277 -0.0381981 -0.116465 0.0102642 0.0946129 -0.0895058 -0.183167 -0.0699652 0.0839217 -0.0524215 0.0756421 -0.107381 0.028733 -0.139242 -0.045797 0.0814621 0.229947 -0.0257002 -0.150916 0.0835636 -0.0704148 -0.0387892 0.0803871 0.0797484 -0.0232334 0.0166928 0.0477765 -0.0442248 0.184338 0.126907 -0.167005 0.0184682 0.0359085 -0.0810191 -0.0860851 -0.00750152 0.0566949 0.0120251 0.0423723 0.0210524 0.0677904 -0.0905451 0.00872438 -0.130601 0.089674 -0.151515 -0.0933785 0.0394309 0.136092 -0.0528356 0.0320596 0.140852 0.0929296 0.153607 -0.139473 0.00440527 0.048599 0.0521252 0.206468 0.0575034 -0.0408047 0.104993 -0.138851 0.00528917 0.0234366 0.251856 0.084149 0.0166018 0.0421184 -0.0166145 0.0829212 0.0230783 -0.145119 -0.0668886 -0.221367 -0.173231 -0.17537 0.0787238 -0.0237554 -0.0435951 0.0527068 -0.0764482
digitizer	0.0816654 -0.155605 0.188866 0.143694 -0.144304 0.168556 -0.0828142 0.0152048 0.00492426 -0.0577327 -0.147667 -0.0208181 0.0783361 -0.150081 0.0126044 0.0027447 -0.0349896 -0.138068 0.0361866 0.0300625 -0.0462944 0.0371291 -0.100332 -0.0881374 -0.148176 -0.110913 0.0835154 0.0736548 0.0672723 -0.0900665 0.042958 -0.0135382 -0.0527217 -0.00348187 0.131621 0.125509 -0.0461075 0.0819095 -0.0955159 0.018576 -0.0415629 0.120782 0.0914809 0.0258581 -0.0181305 -0.0113628 -0.0235315 0.0429379 -0.134535 0.134112 -0.0836794 0.120819 -0.201049 0.0416097 0.122266 -0.00479318 0.0843384 -0.0392134 -0.173967 -0.0553381 0.0324266 -0.0853807 -0.00329384 -0.100362 -0.0693101 -0.0792638 0.109636 -0.0909624 -0.039972 -0.00602951 0.140303 0.142581 -0.00857059 0.198432 0.0474839 -0.0999052 0.241212 0.085627 -0.0298789 0.080657 -0.0416954 0.0437583 -0.114516 0.181246 0.0480762 0.131301 0.0525616 0.104123 0.0766718 0.0618673 -0.138156 0.135769 -0.16747 -0.046548 -0.162652 0.0384976 0.0740618 0.00665301 -0.195719 -0.0983197
multimedia	0.0998976 -0.181591 0.0708592 0.170599 0.142731 0.170255 0.00151551 0.0595939 -0.0728275 -0.0272763 -0.154579 -0.234797 -0.0011674 0.0269531 -0.02357 -0.106338 0.0935422 -0.039704 -0.0366977 0.197328 -0.0543787 0.06162 -0.109841 0.0235664 -0.089297 -0.118967 0.0840677 0.124177 -0.0406384 -0.10601 0.0906922 -0.144611 0.0474625 -0.059812 0.140205 0.0307598 -0.126711 0.00404578 -0.0556334 0.0238953 0.126035 -0.00339294 -0.0844153 0.101219 -0.0280864 -0.0138968 0.177559 0.0310037 -0.155715 0.0955116 -0.024467 -0.0649394 -0.0492411 0.0623958 0.0458772 -0.00272642 0.0546775 -0.0395325 0.145508 -0.0965551 -0.0949616 -0.163911 0.0745336 -0.130688 -0.04563 0.0258 0.00551646 -0.0228228 0.0955922 0.0146405 0.183227 0.129925 -0.0158957 0.109884 0.0850431 -0.0843393 0.226581 -0.028898 -0.0155938 0.00180654 -0.0220381 -0.0210094 -0.0590952 0.200854 0.00375885 0.181197 0.171293 0.0364217 0.113687 0.0550473 -0.11622 0.0819508 -0.187902 -0.0398736 -0.137193 0.0302892 0.0771919 0.103797 0.0508923 -0.00377965
timesharing	-0.0803903 -0.0359051 -0.0166113 0.165745 -0.0581103 0.22936 -0.0307941 0.11647 -0.0616858 -0.083778 0.0637591 -0.087358 0.0277408 -0.0940244 0.0766572 -0.0676107 0.0263666 -0.103356 -0.0312175 0.0773719 0.0260924 0.0822299 -0.0728598 -0.0567818 -0.143055 0.00458757 0.1356 -0.0299989 0.03884 0.107704 -0.023911 -0.119226 0.0820896 0.0789995 0.0734689 0.0189401 -0.0816821 0.130299 0.0162079 -0.0964611 0.118753 -0.122412 -0.0178899 0.0261453 0.0614736 0.14522 0.0222809 0.115292 -0.199164 0.0958224 -0.167987 -0.137202 -0.168478 -0.0368229 0.118043 -0.0314524 0.071981 -0.017146 0.0192434 0.0747239 -0.0686968 -0.176404 0.0338085 0.00140217 0.039563 0.205152 0.0142416 -0.0819043 -0.0412972 0.000844622 0.166715 0.0870516 -0.107379 0.026497 -0.0508632 -0.115045 0.333275 0.122226 -0.132671 -0.000777003 -0.185484 0.00888247 -0.0359572 0.154976 -0.0583725 0.0971577 -0.00675144 -0.0666431 -0.0259576 0.138719 -0.059906 0.169078 -0.180284 -0.0795823 0.0010355 -0.012065 -0.039506 -0.0140725 0.0185928 -0.100784
programmable	-0.0283713 -0.108395 0.0880539 0.064088 -0.248525 0.0439483 -0.000991432 0.0880443 0.000173097 0.0316339 -0.123111 -0.115522 0.0842807 -0.19096 0.0872618 0.075209 -0.013191 -0.0179325 0.144893 0.116497 -0.0342328 0.0209588 -0.0533084 -0.109496 -0.118337 0.0715969 0.0450815 -0.0302594 0.13567 -0.0427609 0.0748691 -0.0800517 0.19426 0.0226433 0.128095 0.110548 -0.00405589 0.0439749 -0.0656797 0.00322296 0.0664673 0.0480329 -0.00485329 0.0890972 0.0204139 -0.0687439 0.0262104 0.12434 -0.190315 0.147959 -0.107379 -0.0356729 -0.179971 0.0599351 0.119346 -0.0594992 0.134519 0.0641562 -0.0308726 0.0180135 0.032112 -0.0247338 0.124331 0.0038129 -0.133876 0.0181574 0.132523 -0.0685697 -0.0530044 0.0656186 0.146915 0.144886 -0.0585507 0.143203 0.083864 -0.0954623 0.269141 0.133513 0.0770729 0.102041 -0.135386 0.0424905 -0.087208 0.080371 0.0802988 0.0427073 -0.0130954 0.0556601 0.14674 0.0921366 -0.15152 0.102466 -0.17854 -0.0643717 -0.18548 0.0249389 0.0418474 0.0613444 -0.0885942 -0.0837662
china	-0.00125181 0.0665454 0.0899005 -0.0785293 0.00816127 -0.067896 -0.0551012 0.0728826 -0.0263023 -0.0346494 0.0912381 0.0286543 -0.00201034 0.0495496 0.0364735 -0.0848819 0.105383 -0.0326072 0.0778234 -0.0725928 -0.153407 0.0904798 -0.134254 0.0892353 -0.139936 -0.1411 0.109303 -0.044408 -0.168519 -0.0798905 0.106353 0.219366 -0.0270986 0.0203083 0.218978 -0.115371 -0.0892292 0.0683103 -0.050022 -0.119143 0.100233 0.0232731 -0.165394 0.062033 0.0420465 0.0204744 0.0835488 -0.0755635 -0.0814925 0.0525874 0.000416972 -0.0745876 -0.161034 -0.100889 0.0364998 0.101177 -0.0775547 -0.0945415 0.137791 -0.0670246 -0.0686792 0.0225651 0.118572 -0.0403431 -0.064088 -0.0933949 0.207999 0.0565612 -0.069311 0.232411 -0.0772072 0.0881433 -0.0452096 -0.0424256 -0.127241 0.022836 0.0552583 -0.0762615 -0.0982624 0.0613518 -0.0339169 0.0507103 -0.00875335 0.0752576 0.254868 0.168536 -0.0128561 -0.106333 -0.0122763 0.0357488 0.109259 0.132931 -0.159126 -0.268802 0.0677215 0.124589 0.0300066 0.0374853 -0.0605923 -0.0579708
america	-0.07927 0.0146509 0.127106 -0.0705465 0.113552 0.0694137 -0.0868826 -0.00513124 -0.010014 -0.200769 0.00503033 -0.0121762 -0.0806436 0.11883 -0.0575118 -0.00715641 0.100726 0.0192223 0.0463858 -0.0174097 0.0806621 -0.0454828 -0.068437 0.0426412 -0.141009 -0.145266 0.143387 0.0638255 -0.144206 -0.157087 0.189167 0.233296 -0.197986 0.128968 0.122451 0.0531802 0.0197314 0.111825 0.0854105 -0.0395804 0.186632 -0.0548194 -0.104757 -0.126197 -0.0536477 0.0136727 0.0449731 -0.0467309 -0.0129122 0.042429 -0.0132188 -0.0193427 -0.0695332 -0.0628736 0.107061 0.0940811 -0.0422384 -0.191257 -0.120096 -0.0251853 -0.131864 -0.226234 0.144166 -0.0435804 -0.168118 0.0291968 0.069129 0.155361 0.0624286 0.0940754 -0.125338 0.0440427 -0.00217932 -0.0131509 -0.0494195 -0.013492 0.00321144 0.0700295 -0.0442527 0.0236076 -0.0499683 0.0231347 0.102531 0.264041 0.0934284 -0.00549838 0.0213393 -0.0972248 0.199092 0.0074079 0.0838502 0.171946 -0.0789744 -0.0926632 -0.0154252 0.0728847 -0.0119976 -0.000936387 -0.093339 0.0578792
europe	-0.0324426 0.122279 0.0446177 -0.0513981 0.0894215 0.0664175 0.0630235 0.0737528 -0.0821949 -0.0896896 0.0120619 0.039216 -0.0617537 0.119351 0.00886118 0.0816854 0.104245 0.0549665 0.123089 0.0185162 0.0638321 0.00322699 -0.0818273 0.0451033 -0.0830983 -0.213987 0.119781 0.149253 -0.129322 -0.117058 0.136189 0.26917 -0.120071 0.089903 0.149297 0.0443772 0.0334156 0.0701301 0.0132562 -0.115347 0.233123 -0.0108835 -0.158235 -0.0588022 0.0206789 -0.0405555 -0.0227873 0.00384566 -0.158274 -0.010317 -0.0503345 -0.0118276 -0.0550677 -0.0329918 0.198552 0.164015 -0.0569943 -0.0729239 0.0559026 -0.0456962 -0.123028 -0.103138 0.235915 -0.0780033 -0.108897 -0.0576759 -0.042474 0.10087 0.04754 0.177259 -0.143209 0.0777574 0.0159786 0.00289339 -0.0241734 -0.046313 -0.0293018 0.17336 -0.036406 0.0130646 -0.0220598 0.081448 0.0735761 0.1802 -0.0124938 0.0703042 0.091785 -0.103378 0.118517 0.00675574 0.0269796 0.160979 -0.115089 -0.16502 -0.0310523 0.169012 0.0143576 0.050723 -0.0371878 -0.0705598
asia	-0.0600253 0.0172581 0.0676669 0.0208198 0.177696 0.069663 0.0464118 -0.00819934 -0.0250565 -0.0849236 -0.0225763 -0.00335388 -0.0402312 0.0961951 0.0457009 -0.0375104 0.0699073 0.0718103 0.14984 -0.00473209 -0.0935373 -0.00151615 -0.129384 0.102692 -0.124841 -0.190674 0.199526 0.116913 -0.152805 -0.158503 0.0404182 0.315555 -0.0770647 0.055631 0.159452 0.0226385 -0.061213 0.00533118 -0.0184176 -0.0462209 0.200145 0.0193369 -0.132205 -0.0868683 -0.0723213 0.0370846 0.0673492 -0.139348 -0.0377056 0.100835 -0.0596847 0.0460751 -0.135035 -0.115998 0.019749 0.0795126 -0.11558 -0.152247 0.133551 0.0527963 -0.00426703 -0.0516837 0.156549 -0.0964913 -0.128677 -0.0744551 0.015116 0.049063 0.0868118 0.210206 -0.128251 0.0526553 0.035416 -0.0164358 -0.0825763 0.0387505 -0.0115694 0.0181169 0.040594 0.068939 -0.058831 0.0372249 -0.00659496 0.167493 0.093144 0.00696568 -0.0123806 -0.0976859 0.0308279 0.0573751 0.0578411 0.157692 -0.0237438 -0.227026 0.00584146 0.218211 -0.0639804 0.121883 0.000574671 -0.0674927
africa	-0.00888934 0.061087 0.0403224 0.040229 0.0921091 0.115384 -0.0302312 -0.0105364 -0.152663 -0.10204 -0.0585778 -0.0218069 -0.0794516 -0.0190701 0.050007 -0.028367 0.167523 0.0178741 0.0127968 -0.0409691 -0.0691004 -0.0483503 -0.0424369 -0.0135322 -0.0422053 -0.114733 0.216215 0.120098 -0.118082 0.00457375 0.0539706 0.182256 -0.096051 0.121162 0.206268 0.0288587 0.087537 0.135122 0.076929 -0.140907 0.108239 0.00116061 -0.0445822 -0.102757 0.0468551 0.0112685 0.0950813 -0.240637 -0.00842095 0.0690426 -0.0287561 0.0883384 -0.0215991 -0.0364738 0.0814816 0.151567 -0.0147737 -0.098179 0.06441 0.138777 -0.0427191 -0.0879921 0.217011 -0.102528 -0.171561 -0.153146 0.094122 0.138903 0.103696 0.215456 -0.0584739 0.0442329 0.0705407 0.0185128 -0.140449 -0.0292326 -0.0906815 0.0592649 -0.060727 -0.0376831 -0.00815962 0.0322647 0.100398 0.176666 -0.0281852 0.0509169 -0.0497479 0.0821412 0.220066 0.0725107 0.0942407 0.0713994 -0.054854 -0.116654 0.0888987 0.198252 -0.100698 -0.0175519 -0.109245 -0.0627985
worldwide	-0.0277079 -0.0353864 0.152255 0.033899 0.116413 0.0581279 0.00295924 0.115911 0.0345156 -0.081194 -0.0521963 -0.00640834 -0.00573058 0.0871089 0.0533688 0.102501 0.130453 -0.175126 0.0362404 0.079716 -0.0838009 -0.011243 -0.0535709 -0.0202523 -0.115154 -0.174971 0.16983 0.193243 -0.144932 -0.14418 -0.0215866 0.212058 -0.0480622 0.00367717 0.0913787 0.050102 -0.0877018 0.0417289 -0.126249 -0.0595512 0.155895 -0.000184078 -0.0776957 -0.0804774 -0.0292218 -0.079265 0.0688206 0.0201959 -0.19691 0.049325 -0.0340413 -0.141531 0.0216728 -0.0573248 0.123204 0.0460836 -0.0684172 -0.109533 0.00419363 0.0458959 -0.237024 -0.18433 0.12821 0.0613827 -0.102757 0.0342281 0.0763008 0.0800849 0.068643 0.156406 0.00418517 0.0601512 -0.0116445 -0.0252098 -0.0767776 -0.100851 0.0690732 -0.00511208 -0.126542 0.118707 -0.00369153 0.0857696 0.0793953 0.308506 0.0888453 0.122028 0.185099 -0.0499237 0.106745 0.0354594 -0.0706086 0.108891 -0.0523795 0.0544294 0.088601 0.114798 0.0292931 -0.0376992 -0.028111 0.0930275
mexico	0.00694449 -0.0131247 0.10375 -0.0736599 0.0682807 0.0712645 -0.190825 0.0265564 0.0272384 -0.179214 0.0900295 0.139404 -0.118638 0.0609847 0.120305 -0.0338622 0.114734 -0.00881719 0.016505 -0.00810454 0.0198054 0.0133276 -0.152125 -0.114381 0.0115836 -0.135822 -0.0285503 0.00731738 -0.0779027 -0.167748 0.203052 0.0707063 -0.0330149 0.0520912 0.176306 -0.0195437 -0.120777 0.215461 0.0613036 -0.133932 0.119401 0.00139548 -0.132487 -0.0875404 -0.0549539 0.0375442 -0.0817054 -0.0873234 0.0452426 0.149047 0.0171725 -0.0799726 -0.04932 -0.103107 0.0649096 0.0399558 -0.102221 -0.0307052 -0.0452619 -0.176324 0.0530783 0.01191 0.0543567 -0.100974 -0.210686 0.130417 0.0257534 0.111603 0.182645 0.149302 -0.107075 0.0382326 -0.059267 -0.00442693 -0.0805484 -0.00598572 0.0509495 -0.0210818 -0.140312 0.0295937 0.043437 0.165277 0.0621964 0.203556 0.0352491 0.0253121 0.116524 -0.0933884 0.185336 0.0149442 0.11579 0.100942 -0.0479569 -0.110672 0.0268686 -0.081161 0.0954657 -0.0252316 -0.188476 -0.0725621
midwest	-0.162615 -0.050266 0.116881 0.103078 0.05771 0.0219438 -0.0968494 -0.024358 -0.0340133 -0.227853 -0.0324128 0.116652 -0.0135274 -0.00497572 -0.0462396 0.110018 0.246882 0.0437509 0.0695233 0.127123 0.100017 0.068895 -0.0106713 0.0475037 -0.0866855 -0.187574 0.025602 0.0642514 -0.121011 -0.134625 0.210515 0.157037 -0.0330578 0.0813256 0.308217 -0.0363643 0.0249588 0.104876 0.0241267 -0.0890222 0.0803522 0.00474279 0.00729237 -0.0840454 -0.108577 0.062845 -0.0350767 -0.0370971 -0.00238569 0.151567 -0.142564 -0.209964 0.00537847 -0.0528677 0.0315852 0.0962326 0.141986 -0.121669 0.0115537 -0.100018 -0.101278 -0.0937929 0.0870062 -0.00427152 0.0869556 -0.0299049 -0.0851788 0.0844585 0.153904 -0.0161378 -0.121952 0.126484 -0.0424074 0.0383302 -0.170708 0.0868928 0.0825347 0.042402 -0.0412346 0.0439266 -0.0561221 0.0272935 0.15418 0.228874 0.00064456 -0.0703358 0.11619 -0.118367 0.0730017 -0.00255058 0.0286198 0.1218 0.0339288 -0.0372476 -0.0201221 -0.000378547 -0.0391214 -0.0412294 -0.0426117 0.0302204
atlantic	-0.123816 -0.0101816 0.0391259 0.0294917 0.245184 -0.118279 -0.0406673 0.0164533 -0.0194568 -0.155317 0.121625 0.0771966 -0.0014139 0.122328 0.0296877 0.00715587 0.246627 0.0452843 -0.0348978 0.0290447 -0.142409 -0.0550066 0.0277038 -0.0303102 -0.0965024 -0.0720129 0.0915854 0.132795 0.0392568 -0.0639303 0.0830518 0.17161 -0.177486 0.108381 0.197179 0.0261047 -0.0210736 0.130033 0.171648 0.000785417 0.189085 -0.178482 0.0254918 -0.0378206 0.0350023 0.0567404 0.0032256 -0.111304 0.089923 0.0131531 -0.0792432 -0.0580182 -0.00559304 -0.063114 0.161191 0.0873718 0.171022 -0.0386822 -0.0689498 0.0402949 -0.0268317 -0.0960152 0.0950817 -0.128833 0.0520623 0.0446242 -0.0386794 0.0546779 0.0121417 0.0611539 -0.062617 0.122234 -0.0527402 0.075424 -0.0496636 -0.00201302 0.0996722 0.084349 -0.0689085 -0.0709596 0.00449512 0.0747327 0.0670116 0.124866 0.0364161 -0.0397831 0.00763027 -0.0623904 0.247924 0.121239 0.0348536 0.28566 0.0370705 -0.125594 -0.00835267 0.0526228 0.129148 0.0461548 -0.162795 -0.0403107
canada	1.78201e-05 0.0104769 0.118406 -0.108629 0.104355 -0.0348618 -0.0242786 0.0898056 0.0587422 -0.120576 0.0378096 -0.0393879 0.0157354 -0.0205414 -0.0493615 -0.133565 0.145691 -0.0321114 -0.0256753 0.179167 0.0148618 -0.0199043 -0.0378216 0.152909 -0.175501 -0.0990052 0.0789727 0.0907516 -0.0513469 0.0148635 0.137926 0.0763658 -0.133725 0.15708 0.257508 0.0528939 -0.0406459 0.062801 -0.00167336 -0.116396 0.033042 -0.0739599 -0.053419 0.0208691 0.0068648 -0.0138047 -0.0182174 -0.0319147 -0.0113356 0.00528838 -0.0123891 -0.0483558 -0.122663 0.0698892 0.0937913 0.178467 -0.1556 -0.0388581 -0.0736618 -0.0345862 -0.279482 -0.00846189 0.163774 -0.0441223 -0.127532 -0.0115944 0.0603299 -0.105856 0.232931 0.0266329 -0.133036 0.154811 -0.0639566 -0.0262544 -0.109315 0.115496 0.00444317 0.0295815 -0.228416 0.0441553 0.0640682 0.0220621 0.133171 0.256232 0.099697 0.0540285 0.0588852 -0.0418049 0.163094 0.0773741 0.0389257 0.108397 0.0564643 -0.154609 0.037677 0.0302341 0.0426136 -0.0558002 0.0607797 -0.0217218
brazil	0.105909 0.0496383 -0.0156693 -0.0526717 0.0275301 0.0660897 -0.0581946 -0.0608691 -0.0514084 -0.095082 0.0980018 -0.153056 -0.0733854 0.12247 0.117091 -0.0289288 -0.0152089 -0.110486 -0.148269 -0.0208882 0.0598974 -0.0556975 -0.0752979 -0.030229 -0.044269 -0.0819881 0.197377 0.019228 0.0197994 -0.112616 0.0984902 0.205165 -0.0798841 -0.0868771 0.233465 -0.0847008 0.0898396 0.110741 0.0221673 -0.140368 0.0875994 -0.00696148 -0.14814 0.0387618 0.0809284 0.0710182 0.0209356 -0.149123 0.024049 -0.000943957 0.0506458 -0.079355 -0.0371435 -0.116321 0.169245 0.133338 -0.00678114 -0.123427 -0.0397558 -0.059302 -0.0937586 -0.100787 0.0974576 -0.0451879 -0.226347 -0.0380785 0.124337 0.151525 0.0534345 0.226947 -0.108699 0.00391701 -0.0329211 -0.00885563 -0.133335 0.0790028 0.0743195 0.0086971 -0.120734 -0.0434366 0.096279 0.139467 0.139108 0.161246 -0.0115738 0.077669 0.105826 -0.0640436 0.188942 0.0201758 0.0851528 0.0181982 -0.0570481 -0.0901476 0.0306858 -0.0424985 0.0731664 0.116938 -0.141768 -0.173756
japan	0.0630264 -0.0354616 0.24056 -0.103469 0.130771 0.0144794 -0.0551567 0.0827221 -0.121718 0.0422878 0.0266192 0.0728322 -0.0594801 0.0648554 0.0256828 -0.0215288 -0.0427103 0.00202052 -0.0535907 -0.0934233 -0.0463161 0.0917309 -0.158429 -0.00258805 -0.140219 -0.155561 0.0889141 0.1354 -0.133593 -0.171842 0.14124 0.239732 -0.155425 0.0198288 0.227387 0.0354069 -0.0936558 -0.06057 -0.0308832 -0.146285 0.145475 -0.0157353 0.0025461 0.0282784 0.0515688 0.0193235 0.0775579 -0.123594 -0.0283579 0.0603595 0.0419358 -0.191952 -0.154488 -0.0967357 0.137544 0.109609 -0.107716 -0.082377 0.0261809 -0.0270131 -0.0514708 -0.0612067 0.130055 0.0603742 -0.0737889 -0.0116181 0.0671821 0.175115 -0.0499411 0.0350105 -0.12479 0.0985062 0.0412153 -0.0267596 -0.00727295 0.0567287 0.201947 0.151014 -0.115065 0.0433419 0.0335596 0.0582744 0.0371091 0.05501 0.16356 0.139589 0.0230421 -0.0162046 0.0186226 -0.0302625 0.156036 0.00789382 -0.0519938 -0.140909 -0.0543277 0.20348 0.0342389 0.0353333 -0.0605595 -0.0440208
colombia	0.169133 -0.030256 0.0606644 -0.107741 -0.0375192 0.0335821 -0.190925 0.0392183 -0.0664958 -0.139944 -0.0465913 -0.0929189 -0.014584 0.0399509 0.0563258 0.0660063 0.0922964 -0.0303055 0.0644736 -0.0468724 -0.0232472 -0.0972139 -0.0829715 -0.0222206 0.0715381 0.0287733 0.159929 0.0326513 0.00734068 -0.142942 0.207219 0.106289 -0.0617536 0.0183869 0.0338168 0.0256734 0.0138225 0.182473 0.0309001 -0.15207 0.0465774 -0.0249188 -0.207602 -0.0158001 -0.0163541 0.116904 -0.0750357 -0.152992 -0.000538476 0.0546399 -0.0490242 -0.0591107 0.0372357 -0.0982111 0.151025 0.120473 -0.110397 -0.0777749 0.0123199 -0.0587526 -0.039319 -0.0397274 0.0425792 -0.0421191 -0.254373 0.0527449 0.204209 0.0817798 0.133687 0.1114 -0.171925 0.00906488 -0.0788358 0.0566589 -0.0896346 -0.0625753 0.0496043 -0.0399554 -0.119575 0.10912 0.048122 0.209538 0.0527465 0.160228 0.0363203 0.0542143 0.0215825 -0.138379 0.221446 -0.0594445 -0.0309427 0.176158 0.0520003 -0.0980375 -0.00438572 -0.0481552 0.0249349 -0.0684757 -0.192918 -0.154575
britain	-0.0836059 0.0924551 0.0277632 -0.138415 0.0223999 -0.0413488 0.0385214 0.0840007 0.0157791 -0.00550252 -0.0169827 0.0712927 -0.0174214 0.0747742 -0.0150349 0.0331698 0.145433 -0.0265714 0.167484 -0.00228843 -0.115489 0.0200967 -0.0477593 0.00900782 -0.00911249 -0.101382 0.0311848 0.0928414 -0.0859988 -0.0361217 0.23462 0.0794933 -0.226531 0.20506 0.271982 0.0664637 0.0116892 -0.033871 -0.00713967 -0.0789783 0.145398 -0.0482056 -0.123482 -0.0709704 0.114713 -0.0810862 0.0418254 -0.0261837 -0.172968 -0.0277568 -0.100184 0.0745448 -0.110555 -0.0224104 0.0740082 0.181878 -0.0822644 0.0213667 -0.0427524 0.129649 -0.160478 -0.0428209 0.188654 -0.0531205 -0.192272 -0.0498732 0.101722 0.077833 -0.00817474 0.229029 -0.131911 0.0350384 -0.015958 0.0770172 0.0142202 0.0255186 -0.0558953 0.208842 -0.117638 0.0573262 0.0516925 -0.00575975 0.216829 -0.0270671 -0.0440429 0.162344 0.00966017 0.00464834 0.159656 -0.00660376 0.0733697 0.0717881 -0.0564619 -0.117224 0.0871659 0.0583297 -0.0292628 0.023274 -0.0450237 -0.0774593
spain	0.162138 0.175057 0.0073874 -0.0747253 0.0210372 0.076677 -0.010155 0.0415649 0.0473841 -0.0472876 0.0589954 0.0491773 -0.037441 0.0182457 0.0385201 0.0160392 0.139126 0.0105941 -0.00618028 0.0360203 0.0464064 -0.125476 -0.109472 -0.0787967 0.048361 -0.0624603 0.0872856 0.0290533 -0.0409131 -0.028383 0.108054 0.0818155 -0.0430335 0.073 0.137665 -0.0668088 0.0173036 0.137196 0.146528 -0.116254 0.134681 0.0795808 -0.201707 0.0539131 0.0773617 -0.0509729 -0.141209 -0.0602729 -0.0971622 0.0820825 -0.0588248 0.0144857 -0.0740997 0.00114809 0.0864763 0.0547264 -0.186277 -0.0842302 0.0122896 -0.127213 -0.0292352 0.0129081 0.0914737 -0.234286 -0.186762 -0.0607476 0.0345282 0.0977415 0.182376 0.156998 -0.120331 -0.0683151 -0.0978534 0.0730432 0.0460718 -0.0430816 0.051813 0.206829 -0.102415 0.0008431 -0.0108982 0.08404 -0.0413735 0.0378125 0.0995283 0.196879 0.0688598 -0.138015 0.299459 0.0128166 0.0799691 0.159435 -0.0146313 -0.109435 0.0958094 -0.00375429 0.0830315 -0.0233004 -0.0930064 -0.191597
russia	-0.0266926 0.163781 -0.0480124 -0.154628 0.0870127 -0.00311017 0.161905 0.11881 -0.0968389 -0.0805736 -0.0159532 -0.074179 0.053399 0.0512739 0.0777128 -0.0479313 -0.0019339 0.100724 0.0207992 0.0600856 -0.082922 0.0390854 -0.088631 0.0716714 -0.0320702 -0.216787 0.0154964 0.0526537 -0.0918456 -0.241656 0.132741 0.0609806 -0.153916 0.106569 0.0791578 -0.118982 -0.0719149 0.0341612 0.00231098 -0.0908535 0.0813126 0.0404863 -0.301917 -0.0804953 0.165475 -0.0176746 -0.141046 -0.0290815 -0.0951234 -0.0286438 0.0868157 -0.123628 -0.183038 0.0233281 0.0441596 0.210399 -0.0712627 -0.00894065 -0.00924418 -0.0183397 -0.0512693 0.028117 0.188784 -0.000858401 -0.0609834 -0.0547374 0.0599268 0.184881 0.0405579 0.138817 -0.0106932 -0.0166143 -0.106582 -0.00517264 -0.0184299 0.0894479 -0.0457289 -0.0273949 -0.116527 0.0399604 0.0416253 0.057042 0.0649516 0.0669059 0.150718 0.151695 0.0690825 -0.0474812 0.114015 0.0709392 0.0452126 0.155017 0.0258872 -0.192814 -0.0107169 0.0557438 0.123582 0.101134 0.0192368 -0.158419
switzerland	0.0536623 0.232678 -0.0833327 -0.121163 -0.0475728 0.0359527 0.109277 0.108213 -0.132876 -0.0333321 0.0422087 0.115598 -0.0335493 -0.0299903 0.0397903 0.130509 0.0587365 -0.0366963 -0.0690764 0.0774891 0.0531563 0.0265056 -0.000641416 -0.0267232 -0.0777434 -0.121536 0.121346 0.104014 -0.123223 -0.0723757 -0.00862773 0.0912488 0.00510128 0.167126 0.17529 0.0944668 0.0280241 0.22093 0.0168713 -0.0943043 0.0951793 0.0416897 -0.0658678 0.06691 0.0307769 -0.0141887 -0.00779985 -0.0987238 -0.142275 0.074658 0.0668416 -0.243018 -0.0729905 0.0286406 0.0390728 0.0885796 -0.0725272 0.113621 0.0648006 -0.136051 -0.0986501 -0.055335 0.137107 0.0264556 -0.199596 -0.184472 0.0588701 0.0115291 0.0123441 0.0951376 -0.164759 0.0698131 0.00280556 -0.00400618 -0.0427958 -0.0526948 0.0720189 0.0210757 -0.260999 0.000307865 0.163637 0.122407 0.140825 0.0622066 0.0211963 0.11789 0.0612877 -0.213953 0.100128 -0.0109164 -0.0242392 0.0550667 -0.195434 -0.108596 -0.0411887 0.0295859 0.087133 -0.0738786 -0.0263919 -0.055962
netherlands	0.108029 0.119143 -0.0575541 -0.131814 0.0655549 0.057185 -0.0301435 0.16687 0.0191039 0.128959 0.00739333 -0.0966364 0.0556014 0.0199527 -0.0279555 0.0910675 0.0440243 -0.0703131 0.013737 -0.0131116 0.0372171 -0.0724724 -0.0209681 -0.018676 0.0256607 0.00366665 0.185165 0.111638 -0.143455 -0.0620477 0.0327788 0.153583 0.00358545 0.127773 0.246599 0.0734462 0.0279564 0.0172044 0.112914 -0.0470795 0.184387 -0.0503474 -0.113814 0.137169 0.0278259 0.00873319 0.0117283 -0.169357 -0.206284 -0.0248105 0.020925 -0.0382902 -0.0951926 0.0468648 0.101739 0.266198 -0.0638748 0.0293738 0.0512336 -0.117183 -0.030034 -0.0600907 0.192934 -0.160904 -0.155252 -0.0771718 0.14849 0.16253 0.14257 0.119139 -0.0728885 -0.0363626 -0.00857788 0.0187497 -0.0818152 -0.0105226 0.134413 0.157565 -0.0822835 0.0368142 0.0269668 0.0452414 0.207407 0.0884577 -0.012255 0.142625 -0.0127602 -0.199124 0.139223 0.0120876 0.0812851 0.110213 0.0165286 -0.0489983 -0.0187281 0.0875502 0.0125078 -0.00043194 0.00477474 -0.0543997
france	0.0282696 0.120927 -0.0714187 0.0078264 -0.0458964 -0.0390543 0.045471 0.110175 -0.114576 0.0253295 0.00189635 0.132921 -0.00873394 -0.00841127 0.0717432 0.0222714 0.208389 -0.0531427 -0.0152173 0.00820959 -0.00908254 -0.0140169 -0.0335626 0.0709324 0.000817278 -0.0414919 0.0899094 0.109737 -0.0723826 -0.110294 0.129533 0.104269 -0.11052 0.0915986 0.201173 -0.0280274 -0.0756365 0.0923347 0.0705838 -0.0595631 0.120431 0.0313793 -0.106376 0.0197889 0.0497112 -0.0138237 -0.118227 -0.0222199 -0.129781 0.0356968 0.0474413 -0.103335 -0.152571 0.0415961 0.270358 0.157346 -0.0938668 -0.041597 -0.0307121 -0.081315 -0.139703 -0.0530657 0.185752 -0.166483 -0.115214 -0.121719 0.0151884 0.0449327 0.0362582 0.153182 -0.220982 -0.101169 -0.0191778 0.0404963 0.0235748 -0.0404585 -0.0306815 0.231221 -0.194451 -0.0108173 0.0474877 0.0180667 0.10777 0.0347828 -0.148826 0.215232 0.029844 -0.0782419 0.207652 -0.00963073 0.0639007 0.110851 -0.0807704 -0.113666 -0.00791661 0.139073 0.123074 -0.0317866 -0.0466406 -0.0236631
italy	0.0400189 0.180119 -0.014437 -0.156152 0.0192237 0.0949561 0.104154 0.0175274 -0.0125948 0.0668657 0.0348033 0.0833793 -0.0972181 0.00862117 0.00373898 0.140927 0.0888384 -0.0517545 -0.0471443 0.0633691 -0.0109028 0.0650787 -0.0192696 -0.0459234 -0.00964655 -0.0281318 0.171765 0.176417 -0.0209964 -0.0793505 0.267936 0.19859 -0.16911 0.00667043 0.156495 -0.0513131 0.0340659 0.0535913 -0.0139653 -0.0368348 0.140416 -0.0313533 -0.106136 -0.0105185 0.0138564 -0.038843 -0.0109598 -0.0268671 -0.103205 0.0608322 0.0058203 -0.0668771 -0.0856667 -0.0751643 0.173663 0.0477488 -0.181088 -0.054495 0.0777134 -0.0720565 -0.00291567 0.0606038 0.142565 -0.074482 -0.194971 -0.174473 0.0493458 0.037028 0.0330197 0.1701 -0.135287 0.0207697 0.0541671 -0.0431518 -0.0356425 -0.0414885 0.113812 0.157105 -0.138484 -0.0806144 0.0873323 0.117082 0.0970273 0.0162736 -0.0335949 0.0828388 0.0973519 -0.0375841 0.154599 0.02582 0.0431549 0.265425 -0.122824 -0.0748931 -0.0362455 0.0636197 0.1253 -0.0551427 0.0534406 -0.228391
sunny	0.0550636 0.167429 0.00939641 0.0693372 0.172217 0.0066409 -0.0868908 0.0560971 -0.0109474 -0.175747 -0.0292432 0.189835 -0.0622468 -0.0349552 -0.0646549 0.0350846 -0.0828503 0.0243844 0.0438217 0.0881405 0.00157576 0.0707392 0.0862644 -0.133578 -0.00747543 -0.142241 0.146028 0.132777 0.161083 0.048166 0.106037 0.109427 -0.0137573 0.0639102 0.0328915 -0.0326389 -0.0880596 0.028802 0.113928 -0.112546 0.180127 0.0688261 0.112771 0.146691 0.122359 0.108528 0.279205 0.0125976 0.134077 0.233233 -0.124066 -0.124023 -0.167336 -0.0441687 -0.075184 -0.00659911 0.139907 -0.163581 0.0808731 0.0187446 -0.124978 -0.106059 0.125359 -0.00440445 0.00216977 -0.213911 0.060768 -0.0832069 0.00456807 -0.0107297 0.0699368 -0.147809 -0.0538149 0.0930125 0.0279501 -0.095501 0.0946437 0.0981214 -0.0498244 -0.100313 -0.0665146 0.188351 0.0512597 0.0190956 0.0483066 -0.121992 -0.0305007 -0.0549192 -0.0184247 -0.0178114 -0.0407451 0.0178315 -0.0514935 0.0009809 0.0449871 -0.00162106 0.0511059 0.0891451 -0.128794 0.0340667
cool	0.0555794 0.0905903 0.0593976 0.0720939 0.16919 -0.0617221 -0.1089 0.0189537 0.0302995 -0.198055 0.0167455 0.129513 -0.0497565 -0.115832 0.0112824 -0.0117176 0.0689352 0.116143 -0.117342 0.0608886 0.0653704 0.0319196 0.141923 -0.133707 0.0324313 -0.160258 0.125743 0.0764968 0.109771 0.0230921 0.232733 0.121472 -0.0502477 0.0181645 -0.0304641 0.0517927 -0.0490746 -0.0822818 0.113409 -0.101938 0.0759385 0.0743009 0.0693273 0.0991296 0.103415 0.00872652 0.207608 0.0892469 0.0391134 0.0659864 -0.0955773 -0.147864 -0.0659813 -0.0393885 0.0315297 0.0311693 0.133082 -0.185218 -0.00975884 0.0301289 -0.091853 -0.0603554 0.217986 -0.0646943 0.133381 -0.179539 0.168493 -0.0697265 -0.0231131 -0.00273697 0.114949 -0.0335196 -0.0150513 0.202422 -0.16 -0.112821 0.0285967 0.0405334 -0.064635 -0.0106296 -0.132004 0.157898 0.0555857 0.0922495 0.0431713 -0.0674964 -0.0095788 -0.0536074 0.0920708 -0.140703 -0.0865953 0.0692336 -0.0660073 0.0141064 -0.0334159 0.0619846 0.152296 0.107619 -0.159535 -0.0821227
foggy	0.0342785 0.154321 -0.0716956 -0.0361163 0.106896 -0.135333 -0.15787 0.00773724 -0.0608465 -0.205754 -0.018214 0.184478 -0.0509332 -0.0502288 -0.0819833 0.00952045 0.0714174 0.167968 0.186821 0.0180802 -0.0663898 -0.0230375 0.097129 -0.0280013 -0.00631808 -0.092248 0.0134032 0.0768114 0.202578 -0.0117625 0.270883 0.0958232 0.0738806 0.0843462 0.124404 -0.000886772 -0.0337082 0.0705535 0.048703 -0.0042638 0.141213 -0.01689 0.157759 0.161645 0.111656 0.015324 0.207765 -0.0506774 0.131213 0.0931691 -0.0813824 -0.10188 -0.0442725 0.0596919 -0.0753408 0.0476909 0.279198 -0.127718 -0.0122156 -0.0189768 -0.0495963 -0.00772337 0.0955345 -0.0623162 0.0542442 -0.149314 0.0707786 -0.0931815 -0.00484361 0.0125863 0.0935579 0.0294529 -0.0530013 0.0806777 -0.0557145 -0.10419 0.107135 0.0943079 -0.121503 -0.0406695 -0.0413376 0.0924912 0.035755 -0.0371031 0.0661202 -0.158295 -0.0287218 -0.0691284 0.0571013 -0.00575343 0.0174976 0.118864 -0.0387696 -0.0664064 0.0620018 -0.0399996 -0.0416788 0.00356469 -0.278705 0.0357124
muggy	-0.0599073 0.11382 0.0170941 0.106895 0.128576 0.0840981 -0.145655 0.0990506 -0.0501911 -0.221653 0.0284502 0.1733 0.0662595 -0.018582 0.0766463 -0.0927276 0.0338006 0.0654894 -0.0177525 0.0483788 0.094423 -0.0519073 0.118623 -0.056503 -0.0696833 -0.170459 0.099458 0.132539 0.0474944 0.031285 0.15986 0.0174213 0.1177 -0.00932756 -0.00588012 -0.0401354 -0.0919653 0.0131037 0.0909845 -0.160655 0.10984 -0.000909009 0.0717834 0.195099 0.0761431 0.0785221 0.187361 0.025221 0.0890684 0.171023 0.0288757 -0.134393 -0.0386164 0.0693837 0.0264508 0.0540844 0.0625915 -0.151793 -0.0211214 0.00985991 -0.0433054 -0.0623408 0.194742 0.0141852 0.101128 -0.214029 0.0241482 -0.108208 0.0514209 0.0980687 -0.0786152 -0.0340409 0.0719817 0.168561 -0.136416 -0.0157756 0.0333313 0.137397 -0.0913298 0.0204544 -0.177021 0.0846128 0.0789778 -0.00762886 0.179539 -0.0188439 -0.0502681 -0.0276546 0.0344437 0.0501629 0.00939949 0.166924 -0.157474 0.0829902 0.0218957 -0.0283311 0.143382 0.0655951 -0.22296 -0.0172968
windy	0.0351372 0.170439 0.071936 0.0270527 0.203779 -0.0238546 -0.104053 0.0287444 -0.0381654 -0.0799963 0.0566589 0.1672 -0.00617288 -0.0902713 0.0182511 -0.0178325 0.1107 0.0903258 0.0544673 0.121302 0.0639965 0.0649207 0.0907256 -0.00256715 -0.115137 -0.237025 0.0583973 0.0484865 0.114494 0.0405087 0.178405 -0.067723 0.0359023 0.112705 0.178777 -0.0340058 -0.0660749 -0.0315803 -0.0106023 -0.143235 0.126635 0.0269844 0.0391379 0.0306966 0.0985181 0.00525809 0.237725 0.0745109 0.132238 0.065301 -0.0917474 -0.190247 -0.0780822 0.0551803 -0.102006 -0.0304048 0.202456 -0.119687 0.0235931 0.0556081 -0.0942573 0.0714029 0.0613785 0.00327191 0.161462 -0.228945 0.0459868 -0.102484 -0.0434903 0.0511015 -0.0419409 -0.025101 0.0883814 0.0990686 -0.0699911 0.00640746 0.0721655 0.133209 -0.0549478 -0.0706703 -0.122127 0.0504753 0.137577 -0.0558241 0.0953314 -0.167847 0.0346781 -0.0561369 0.124936 -0.0366339 0.0581228 0.196072 -0.0172713 0.0750221 0.0287783 -0.089402 0.0562554 0.114101 -0.166317 0.0590499
warm	-0.0841517 0.201393 0.081356 0.0758124 0.189177 -0.0127618 -0.0303375 0.0202951 0.00961466 -0.228005 -0.0150518 0.178694 -0.028096 -0.00677369 -0.0208222 -0.0108172 0.070784 0.0692924 -0.0550811 -0.00779506 0.00843477 0.0683708 0.0556455 -0.158856 0.0512382 -0.186884 0.174201 0.0852515 0.0822343 0.00185997 0.235038 0.0911751 -0.0831485 0.123943 0.0265592 -0.0147473 -0.0696547 0.0172175 0.0834695 -0.118953 0.00352609 0.0997778 0.0338787 0.0947443 0.122313 0.0685533 0.196732 0.0185234 0.0176685 0.0410844 0.00608493 -0.119804 -0.0339576 -0.0248269 0.0796879 0.112325 0.0723837 -0.0828134 0.0757988 0.0520724 -0.110339 -0.0181943 0.155619 -0.0993346 0.147536 -0.21729 0.101263 -0.0775014 0.0339102 0.119492 0.0468184 0.0328591 -0.020845 0.13453 -0.0979977 -0.071293 0.048566 -0.0537276 -0.0649604 0.00730558 -0.0521704 0.0877125 -0.038825 0.0768667 0.0660822 -0.131908 -0.0288304 -0.0259529 0.0878634 -0.105318 -0.0024008 0.125395 -0.0829054 0.119875 0.02283 0.0325346 0.263245 0.18469 -0.205512 -0.0478811
cloudy	0.0403228 0.155116 0.066013 0.110407 0.0778105 -0.0847859 -0.102461 -0.00406959 0.0915729 -0.0868947 -0.0152927 0.249325 -0.076632 -0.149389 -0.131952 -0.135207 -0.018217 0.0375082 -0.010294 -0.00448687 -0.0539036 -0.0563891 0.0259925 -0.105624 0.0102482 -0.109593 0.0326203 0.00392534 0.0475646 0.00711642 0.0876541 0.0865221 0.11996 -0.0274943 0.0205493 0.0148874 0.0835254 0.0378469 0.0313073 -0.156654 0.171784 0.00816819 0.0361759 0.178054 0.0813757 -0.0205455 0.250611 0.0141588 0.100196 0.108648 -0.0830393 -0.122817 -0.147785 0.000627333 -0.0926929 0.142956 0.160779 -0.00203062 0.00612598 -0.046769 -0.0155568 -0.0405041 0.089429 0.0158671 0.060796 -0.268962 -0.00238158 -0.129066 0.126705 0.0904172 0.0159573 -0.005119 -0.00183107 0.0948054 -0.0950277 -0.145514 0.103215 0.135306 -0.183005 0.0675444 -0.0921027 0.0604644 0.0207783 0.0346394 0.0854794 -0.0364211 -0.0108784 -0.063937 0.0221922 -0.074694 -0.0153057 0.225964 -0.0254885 0.232377 0.0794104 0.0872552 0.116562 0.125343 -0.134557 0.0519993
snowing	0.106858 0.185392 -0.0758413 -0.00474047 0.0794378 0.0568569 -0.0553982 0.0725148 -0.0904032 -0.249083 0.0163297 0.133875 -0.0926127 -0.133731 -0.0168356 -0.0161555 0.0200815 0.121856 0.0883529 0.119033 0.054548 0.113144 0.105799 -0.0102298 0.0117465 -0.178337 0.0790617 0.0927558 0.0702266 -0.0240865 0.205844 0.105655 0.101418 -0.0613673 0.142983 0.0393027 -0.106671 -0.0292698 0.059578 -0.162616 0.191118 -0.057991 0.13734 0.0615081 0.0631495 0.008754 0.115066 0.187367 0.135497 0.138462 0.13295 -0.11478 -0.18937 0.0481939 0.11381 0.00467745 0.0538649 -0.0592857 -0.0692054 -0.056954 -0.0564425 0.000703183 -0.0410139 0.0387311 0.031957 -0.146642 0.0796606 -0.155555 -0.00224474 0.0843134 0.0515967 0.033135 0.055873 0.0795684 -0.0464137 -0.117141 0.085013 0.0658208 -0.104593 -0.0981825 -0.117942 0.135474 0.0733954 -0.101281 0.0577751 -0.0444421 -0.0499617 -0.103796 -0.12413 -0.0931992 0.000832252 0.159162 0.0208674 0.0723935 0.0552485 0.0382446 0.184362 0.0385212 -0.165259 -0.0336828
rainstorm	0.0158638 0.29063 -0.0239083 0.167079 0.17668 -0.0554125 -0.261614 -0.0645477 -0.0737873 -0.126233 -0.0343857 0.182754 0.0577583 -0.0430158 0.105362 -0.0593981 0.100969 0.0359639 0.164803 0.0557046 0.0327604 0.0621126 0.121032 -0.118999 -0.0678302 -0.0959089 0.0208205 0.0212677 0.0476209 -0.0594538 0.170494 0.0730186 0.0368248 -0.0789424 0.227035 -0.151684 -0.088871 -0.0554973 0.0395646 -0.11047 0.160486 -0.080955 0.142999 0.0940075 0.0357653 0.111348 0.114276 0.0556205 0.0217653 0.113357 0.0407538 -0.113413 -0.0705664 -0.03476 -0.0367752 0.0288949 0.151148 -0.0383519 -0.0263546 0.0321857 -0.0388393 0.00321458 0.0806833 -0.0892432 -0.0115157 -0.0981352 -0.0866398 -0.166569 0.0635 0.140381 0.0436783 -0.0878372 0.0153746 0.0375929 -0.147202 -0.0810601 0.147793 0.0854792 -0.0373656 -0.0774912 -0.00871981 0.0790234 0.0774524 -0.0306814 0.100854 -0.0811781 -0.0244724 -0.119644 -0.0303769 -0.0533756 -0.00435676 0.0836954 -0.0497772 0.114292 -0.108456 -0.0489493 -0.00387733 0.0200843 -0.255556 0.0345634
rainy	-0.0566202 0.211186 0.0483224 -0.048151 0.0982346 -0.0292423 -0.228126 -0.0601043 -0.0846577 -0.205862 -0.000219464 0.0545263 0.0260143 -0.0455379 0.182932 -0.0507881 -0.00462436 0.00284982 0.0621263 0.123877 -0.0332895 0.0424871 0.0876924 -0.000373345 -0.00932519 -0.0852769 0.0995474 0.0432679 0.136133 0.0379255 0.111706 0.0294449 0.0882611 0.0453072 0.127058 0.0361067 -0.0531546 0.0395665 0.0202509 -0.195162 0.161571 -0.0350968 0.0614892 0.174323 0.0873022 0.178583 0.136485 0.0503598 0.209134 0.118753 0.0337389 -0.185165 -0.0288817 -0.0838659 0.0288187 0.0855922 0.0864099 -0.139595 0.078984 0.104875 -0.111928 0.0288074 0.0473871 -0.107842 0.119721 -0.135795 -0.0778322 -0.195663 0.105667 0.0528482 -0.0324022 0.0101275 -0.0286058 0.087975 -0.113244 -0.00928341 0.0354906 0.0389125 -0.0589987 0.00233906 -0.0616734 0.0471766 0.0998418 0.00889581 0.112166 -0.0707704 -0.089002 -0.0841064 0.0417144 -0.0821104 0.103589 0.117672 -0.0277268 0.13387 -0.131506 0.0612787 0.179132 0.0841638 -0.231317 -0.0245683
cloudless	0.0705672 0.152429 -0.0133291 0.149303 0.0863906 0.0476733 -0.12109 0.034293 0.0817524 -0.160621 0.00568602 0.14628 -0.120856 -0.0219455 -0.0373958 -0.0661055 0.0818756 0.126772 0.0597698 0.084364 -0.119454 0.0143812 0.0860693 -0.21375 -0.060054 -0.145923 0.0716464 0.0368779 -0.00639791 -0.104088 0.00729135 0.0251422 0.103425 0.144969 0.00678373 -0.00868573 -0.0772905 0.0777439 -0.00950498 -0.153648 0.226394 0.0436024 -0.0679213 0.1818 0.0185994 0.0458211 0.185663 0.0276889 -0.0349344 0.0538687 -0.0974875 -0.0718234 -0.16652 0.00170843 -0.018782 0.0884162 0.0230358 -0.128721 0.00565528 -0.034844 -0.049994 0.0299763 0.0397836 0.0320618 0.00490074 -0.186189 -0.0140121 -0.125886 0.052348 0.0889454 0.124166 0.0324735 0.0571678 0.0679413 -0.0827961 -0.0388575 0.0244136 0.115433 -0.21254 0.0699776 -0.0114917 0.0846691 -0.0201826 -0.0901389 0.0801049 -0.199174 0.0178254 -0.098783 0.000299198 -0.0963819 0.0168487 0.169936 0.126136 0.113878 0.0711528 0.0910773 0.135342 0.266694 -0.17223 0.000302997
sunshine	0.0296815 0.0113935 0.142396 0.0736193 0.279054 0.0452237 -0.135339 0.109573 0.0261227 -0.0627026 -0.0754896 0.0334504 0.0358346 0.00127117 0.0284252 0.0284572 0.0650554 -0.10144 -0.00615755 0.149125 -0.00369878 -0.00873378 -0.0323092 -0.105171 -0.182997 -0.0761999 0.0792817 0.064566 -0.0242499 0.0985871 0.109515 0.0219252 0.0361108 0.155956 0.108157 0.0600333 0.0494297 -0.0948628 0.144072 0.00839581 0.227845 -0.0637756 -0.0495843 0.0439161 0.0708522 0.00846332 0.245459 -0.0560012 0.0804785 0.0758314 -0.181794 -0.171207 -0.0355911 0.0168354 -0.121393 -0.00639603 0.0763151 -0.251616 -0.0316044 -0.0812503 -0.115203 0.0228317 0.147427 0.0158081 0.00347254 -0.121014 -0.0572129 -0.0373778 0.115326 -0.00601362 0.114265 -0.0977514 0.0113659 0.0223043 -0.0847166 -0.0497006 0.124938 0.0498189 -0.190778 -0.100567 -0.0823275 0.187621 0.0806272 -0.00779331 0.0798827 -0.0866304 -0.0456522 0.137471 0.0647392 -0.0659922 -0.0239191 0.155858 0.0618503 0.0766927 0.0655527 0.114838 0.177587 0.0678247 -0.102098 -0.0316257
sandy	0.0205137 0.127423 0.0309962 0.0071345 0.283628 -0.0338354 -0.0303524 0.0802725 -0.0502223 -0.189796 -0.102832 0.0765259 0.01726 -0.107208 0.0481927 -0.000828284 0.0336959 -0.0380417 0.0324791 -0.0754434 -0.0653554 0.0243328 0.00510297 0.0891566 0.0221092 -0.0510364 0.072598 0.00159781 0.153403 0.174198 0.160281 0.0404622 0.0306642 0.101932 0.251545 0.0238794 0.0452167 0.111216 0.193772 0.115449 0.0249726 0.0855269 0.0806946 -0.0286799 0.042942 0.135427 0.177395 0.0227252 0.172413 0.0678242 -0.0464709 -0.144899 -0.170125 -0.115128 -0.10476 0.157623 0.108695 -0.138881 -0.0102648 0.0129588 -0.028035 -0.0345517 0.0671792 -0.108515 -0.0664674 -0.158101 0.0867728 -0.0840669 0.104668 -0.0321502 0.0942731 -0.0292724 -0.0830732 0.169731 -0.0678702 0.0737147 0.118807 -0.00615445 -0.0393195 -0.153283 -0.00456773 0.115553 0.0264004 -0.040676 -0.0415359 -0.219369 0.00980583 0.0200279 0.105254 0.0210984 -0.0245009 0.152002 -0.0299225 0.0284168 0.00392116 -0.1589 0.0181718 0.173295 -0.0530385 0.0858385
sultry	0.122236 0.0563712 0.0495369 0.0362413 0.209384 0.0252873 -0.0574691 0.0453614 0.023926 -0.302737 0.0351192 0.0871324 0.0357004 -0.0161744 0.107048 -0.00917519 0.0546912 0.0695984 -0.00164334 0.0811021 -0.115815 0.0537845 -0.0167918 -0.117432 -0.000593443 -0.0604101 0.206577 0.0775055 0.0781597 -0.0556457 0.25662 -0.0612935 0.026819 -0.0271917 0.0137726 0.0908994 -0.0180122 -0.0143549 0.116602 -0.145872 0.105218 0.0734214 0.130706 0.0514529 0.0285687 -0.0270681 0.19447 -0.0183224 0.119281 0.132424 -0.127739 -0.0557225 -0.0802986 -0.0373182 0.135769 0.0492794 0.126466 -0.134238 -0.0677013 -0.108054 0.00235321 -0.0138783 0.123347 0.115095 -0.000160719 -0.139126 0.11046 -0.172176 0.146494 -0.0819734 0.157582 -0.118763 -0.0670877 -0.00691285 0.0169309 0.0176314 -0.0157248 -0.0589293 -0.0330718 -0.118522 0.0498256 -0.0637887 0.0901285 -0.0683102 -0.0676117 0.0384361 0.048412 -0.137321 -0.0377393 -0.14356 -0.0981067 0.0748501 -0.131636 0.0506439 0.0657277 0.00228534 0.0945524 0.0516551 -0.288129 -0.0561114
frosty	-0.0460837 0.0740992 0.175714 -0.0207232 0.0974751 0.0697143 -0.0518436 0.179964 -0.0479271 -0.139886 0.0237998 0.0480649 -0.083371 -0.0428011 -0.0870482 -0.132517 -0.00145938 0.0725156 0.0496325 0.076264 0.0892486 0.0734888 0.120873 -0.152669 0.035931 -0.177536 0.0585232 0.0958079 -0.0461877 -0.0113828 0.223586 0.0240825 0.0385766 0.0483667 0.00873251 -0.156663 -0.116494 -0.0236365 0.134902 -0.164083 0.184369 -0.0046989 0.0924268 0.0501782 0.0427613 -0.00189406 0.147593 -0.0326843 0.101838 0.0194953 -0.0667683 -0.039521 -0.181872 0.0749073 -0.0200575 0.00890216 0.0742456 -0.0498718 -0.000361906 0.00152377 -0.109669 0.0346988 0.15984 0.198065 0.126407 -0.141274 0.0881745 -0.134694 0.025045 0.083963 0.056838 -0.087479 -0.146171 0.159587 -0.247566 -0.0826286 0.0739957 -0.00148972 -0.115806 -0.174392 0.040915 0.0564549 0.0809197 -0.0365258 0.0280763 -0.0415398 -0.036942 -0.0285798 0.212999 0.00670584 0.0511708 0.108326 -0.135767 0.120292 0.0163327 -0.0267855 0.140497 0.0526879 -0.0715538 -0.0843017
humid	0.01438 0.151372 0.0146993 0.033711 0.159706 0.0270379 -0.0770341 -0.060475 -0.0573388 -0.250649 -0.0518851 0.120196 -0.0805047 -0.098748 0.135534 0.0753183 0.115814 0.0874304 -0.0795515 -0.0205145 -0.027039 -0.0483938 0.0359335 -0.0522264 -0.0116408 -0.0806847 0.148362 -0.00636131 0.183734 -0.0481447 0.0742232 0.022972 0.0466483 0.150436 0.0491827 -0.0478449 -0.12144 -0.0300015 0.0560493 -0.148402 0.115844 0.0785501 0.00121599 0.166217 0.0594393 0.101779 0.201261 0.013629 0.100688 0.0291175 0.012517 -0.0863895 0.0247941 -0.0505466 0.0606527 0.12451 0.110053 -0.15653 0.16574 0.0541659 0.0174556 -0.024779 0.0638411 -0.0302844 0.045601 -0.0686735 0.0622446 -0.0739997 0.0281184 0.0569385 -0.165451 0.024961 0.0729981 0.049443 -0.0969833 -0.082258 0.0599688 0.0427825 -0.0741906 0.0751405 -0.216207 0.175606 0.0697174 0.115983 0.0362545 -0.158601 -0.072889 -0.127394 0.0903141 0.0206067 0.0846516 0.135616 -0.044188 0.0495304 -0.10494 -0.00227693 0.143098 0.171847 -0.294577 -0.074144
stormy	-0.0902642 0.258381 -0.0716327 0.0604738 0.189142 -0.0739555 -0.0819638 0.0750559 -0.0782966 -0.14589 0.0788779 0.175523 0.0921277 0.0526589 -0.0836063 -0.117045 0.119874 0.0979985 0.095213 0.0584599 -0.103805 -0.0305395 0.0422387 -0.0779497 0.0182274 -0.104436 0.0804455 0.175487 0.152069 -0.0760522 0.240982 -0.0524641 0.025129 0.0512661 0.144264 0.0650602 -0.0326745 0.0855777 0.0956388 -0.110376 0.224279 -0.0651448 0.0455734 0.129945 0.234704 -0.00394502 0.0989175 -0.000862585 0.0970172 0.060807 -0.0396525 -0.110127 -0.0267613 0.0646033 0.0247288 0.000500575 0.0683689 -0.109784 -0.0430659 -0.0206657 0.0338719 0.0467528 0.0251098 0.0570005 0.125209 -0.169591 -0.0580436 -0.083679 0.0842804 0.00087208 0.157981 -0.00535131 -0.115528 0.105467 -0.030849 0.00998579 0.0399988 0.157086 -0.0300329 -0.0334857 0.0664644 0.0813921 0.0146467 -0.169906 0.0907668 -0.0218438 -0.0129141 -0.11372 0.0771528 -0.0961749 0.0624531 0.218381 -0.0806987 0.0365694 0.10453 -0.00261948 -0.0199073 0.0350944 -0.156543 0.0522035
dry	-0.0562364 0.165499 0.0186505 0.0481318 0.116257 -0.0321399 -0.141276 -0.0810624 -0.0446876 -0.126661 -0.0856584 0.135935 0.0549059 -0.141816 0.07387 -0.0237058 -0.00584439 -0.0456415 -0.0915598 -0.00971621 -0.0300446 -0.0801923 -0.0128361 0.0353927 0.107269 -0.227467 0.0610355 -0.105471 0.19452 0.0361795 0.17391 0.040161 0.0930174 0.0984323 0.0530106 0.00682517 -0.10267 -0.0382623 0.147787 -0.15054 0.0574541 0.000693483 0.0488946 -0.034478 0.139824 -0.0396053 0.328628 0.105187 0.0334042 0.00743497 0.0235561 -0.173659 -0.0372849 -0.149628 0.0838039 0.0615266 0.0923956 -0.0373092 0.0474181 0.0118748 0.0448793 -0.0664651 0.0841227 -0.0656345 0.114539 -0.17332 0.0429199 -0.168175 0.0719342 0.135874 -0.0190058 -0.00875771 0.0263676 0.109196 -0.122489 -0.0269911 0.106832 0.0693645 0.00593314 0.0454475 -0.158498 0.125951 -0.0372809 0.0989059 0.096856 -0.0807136 -0.0496102 -0.0555856 0.163262 -0.0026311 0.00381952 0.177063 0.0395997 0.0990874 -0.0425884 -0.0448705 0.0809675 0.151283 -0.198133 -0.057489
temperate	-0.0674279 0.121327 0.0116764 -0.01274 0.284744 0.0247691 -0.00544825 -0.0569808 0.0321404 -0.135331 -0.0832336 0.0404218 -0.0922369 -0.109704 0.0704555 0.0353299 0.121345 0.0448262 -0.0603964 -0.064243 -0.0283044 -0.00527086 -0.0598465 0.057963 -0.0149759 -0.178147 0.153027 0.00517661 0.136703 -0.0206281 0.0470291 0.0876843 -0.0609933 0.185603 0.054892 -0.0442205 -0.134682 -0.0119338 0.00822031 -0.139336 0.153639 0.0342721 0.0223643 0.0905363 0.00346521 0.0737263 0.258338 -0.00215366 0.0191699 -0.0868708 -0.0546858 -0.0551581 -0.121519 -0.079772 0.0649621 0.173032 0.0131754 -0.0988238 0.172721 0.0879875 -0.0486958 -0.0591448 0.00579812 -0.00409807 -0.0109377 -0.11332 0.0502505 -0.0712131 0.0324052 0.10286 -0.0636431 0.0449128 0.0654894 0.0554067 -0.0563493 -0.106312 -0.0110487 0.0795765 -0.0295519 0.0999137 -0.124268 0.19923 0.105225 0.0853757 0.0357582 -0.163762 0.0121353 -0.116672 0.161047 -0.0137551 0.134339 0.156239 -0.000785159 0.0831928 -0.12115 0.0752923 0.168645 0.140612 -0.271053 -0.0676539
wet	0.0545313 0.237797 0.0390166 0.104928 0.0876114 -0.015154 -0.197629 -0.0539429 -0.0405267 -0.11986 -0.0919628 0.156035 -0.0117943 -0.0770883 0.0287228 0.0188733 0.0309004 -0.0196061 0.0571026 -0.0526271 -0.0420261 -0.0759187 0.0385616 0.0503926 -0.0328195 -0.235248 0.116544 -0.023586 0.152147 0.0330291 0.169183 0.00525874 0.112083 0.019195 0.198669 0.0127246 -0.0736485 -0.0654456 0.00530686 -0.0168788 0.0017092 0.0126835 0.0782078 0.0952318 0.134349 0.0182989 0.32053 0.0551765 0.00505627 -0.0241349 -0.00205111 -0.130068 -0.0646188 -0.12084 0.0843123 0.0606376 0.0244431 -0.0699796 -0.012801 -0.0386744 -0.0214476 -0.0883927 0.0659736 -0.0803727 0.0851553 -0.13978 0.0971346 -0.188764 0.0976108 0.175793 -0.0547323 0.00615147 0.0803518 0.163604 -0.165276 -0.057614 0.0896604 0.00984189 0.0378668 -0.0290404 -0.103442 0.194517 0.0367862 0.0701284 0.0473673 -0.0756975 -0.105145 -0.0103285 0.176179 -0.136387 0.0309966 0.0844484 0.0157336 0.100751 -0.0646665 -0.0290607 0.0266167 0.186171 -0.175023 0.0386771
data	-0.0969457 -0.153759 -0.00239055 -0.00326862 0.0101857 0.041627 -0.0147909 0.107857 -0.0394907 0.0347746 0.0377232 -0.089613 0.111596 -0.135327 -0.00901406 -0.0113499 0.0319817 -0.0828612 0.0313799 -0.0175439 -0.129284 -0.0738234 -0.131097 -0.0897631 -0.0561762 -0.213904 0.0686233 0.126102 0.19238 -0.12899 0.00369713 -0.111725 0.0911359 -0.00794347 0.140731 -0.0241378 -0.168336 0.145845 -0.0695866 -0.0145415 0.0198441 0.08541 -0.124414 0.0304037 -0.0479387 -0.00334015 0.0828651 -0.0503496 -0.106917 0.0480805 -0.0408593 -0.00054465 -0.203292 0.0971416 0.067579 0.0802642 0.195804 -0.0701157 -0.0741413 -0.00238472 -0.122835 -0.108218 0.00945502 -0.107413 -0.180558 0.173996 -0.048938 -0.0922433 0.106033 -0.0175998 0.181043 0.252391 0.125702 0.0681673 -0.0825307 -0.013831 0.275184 -0.041893 -0.0374523 0.135536 0.0039242 -0.0107096 -0.0190389 0.135926 0.0129711 0.0735408 0.11469 -0.0135976 0.130152 -0.0105446 -0.0896759 0.0394503 -0.0658812 -0.0489546 -0.169685 0.0200744 -0.0222866 0.0295298 -0.0501495 -0.152788
home	0.025903 0.090454 0.0608193 -0.0258573 0.180786 0.149633 0.0278438 0.113456 -0.117407 -0.169952 -0.0977788 0.0127031 -0.0354822 0.0117317 -0.0570299 0.100935 0.0112582 -0.0788925 0.038912 0.0282656 0.0255686 0.153467 -0.0631534 -0.136415 -0.0837006 -0.0310652 -0.00632597 0.0574684 0.0974612 0.00796894 0.1515 0.107277 -0.0207219 0.190729 0.319472 -0.0689388 -0.223362 0.130658 0.0517382 -0.112885 0.0182855 0.0176155 0.0912826 -0.10252 -0.139274 0.0158884 0.143882 0.0165285 -0.0675638 0.0949979 0.0928808 -0.112789 -0.0346912 0.084051 -0.0423743 0.074421 0.12413 -0.111809 -0.047131 -0.0250714 -0.325637 -0.0404893 0.103562 -0.095668 -0.0850652 -0.145333 0.00966438 0.0686682 0.0784142 0.0920466 0.00595326 -0.126036 -0.1056 0.0480629 0.0492773 0.026972 0.233626 0.102239 -0.00193542 -0.0481414 -0.0159213 0.0539606 -0.0663988 0.0612278 0.0114809 0.0881963 -0.0709714 -0.0164167 0.0901016 -0.0539385 0.121677 0.174841 0.0537811 0.0371757 0.051682 -0.0666962 -0.0248857 -0.000269629 -0.00281434 -0.0664296
install	-0.00644171 -0.0243695 -0.0652429 0.0756232 -0.0350361 0.0628304 -0.0985161 -0.0192532 0.0237312 -0.0882414 -0.176539 -0.107064 0.015872 -0.223327 0.00938256 -0.0797758 -0.113256 -0.0776466 -0.0529432 -0.0790917 0.0635279 0.0699273 0.0518259 -0.13749 -0.250926 -0.165629 -0.0109714 0.0890719 0.03388 -0.0644656 0.105385 0.0419752 -0.0683007 -0.082683 0.094938 0.0216618 -0.167824 -0.0207098 0.231811 -0.00939136 -0.00473761 0.0540719 -0.00954372 -0.0143009 -0.015959 0.021962 -0.00132684 0.265321 -0.17293 0.0352484 -0.0644993 0.0154622 -0.11967 -0.0320185 0.0545207 -0.0883286 0.11721 0.0561505 -0.032976 -0.0926606 -0.224184 0.151993 0.0888403 -0.240167 -0.0722171 0.0613016 0.137117 -0.00214879 0.0133173 0.00980167 0.0941834 0.066668 -0.0312268 -0.0143467 0.0359053 -0.057522 0.0409807 0.0501873 0.0475318 -0.054808 -0.0350533 0.125166 0.0683178 0.165323 0.0739855 0.201393 -0.103677 0.0447694 0.136431 -0.0477728 -0.037956 0.242309 -0.00644493 -0.0836685 -0.0733158 0.0538043 -0.0676294 0.117501 -0.0429506 -0.0755659
dog	0.0147348 -0.156853 -0.0575885 -0.0290516 0.187147 -0.00373798 0.114392 0.0650063 -0.0894168 -0.237511 -0.0210255 0.27356 0.134434 -0.054438 0.00683859 0.00402205 -0.0281131 -0.0177688 0.224832 0.078227 0.0227769 -0.0119723 -0.0688473 -0.042762 -0.113955 -0.219658 0.0105099 0.0603078 -0.0419678 0.0780911 0.244578 0.0186229 0.03623 0.106961 0.0630185 -0.034543 -0.0204991 -0.0107963 0.0359288 -0.147749 0.0465406 -0.0205833 0.0544037 -0.0699333 0.0688798 -0.0916392 0.0170255 -0.118494 0.0840305 0.0788734 -0.0239781 -0.00408961 -0.200674 0.0869452 0.0273279 0.0371958 0.00095278 -0.0706997 -0.234298 0.131254 -0.0302759 -0.00607342 0.13903 0.104187 -0.0210208 -0.129002 -0.0216569 -0.16126 -0.0630369 -0.00228092 -0.0421644 -0.0635374 -0.000525863 -0.0221609 -0.110199 -0.0253159 0.0760427 0.118309 0.0576501 0.104442 0.00060203 0.156492 -0.0440707 0.171185 0.0928965 0.112727 -0.0223433 -0.024184 0.176919 -0.142634 0.0847662 4.02384e-05 -0.174028 0.116787 0.0143507 -0.105304 0.122543 -0.00311868 0.0204979 0.000317019
cat	0.0915052 -0.132941 0.015783 0.101234 0.171652 0.00820861 0.0596122 0.0408434 -0.0746032 -0.251014 -0.0571931 0.0991768 0.0429203 -0.0802532 -0.0205895 0.039395 -0.0300535 -0.025485 0.185055 0.0745589 -0.0726491 -0.00294866 -0.0782865 -0.0710254 -0.165921 -0.208118 0.0295469 0.00704925 0.0825152 0.0377235 0.142247 -0.0093454 0.0849264 0.0607751 0.0911495 -0.0177919 -0.0422808 0.026361 0.01852 -0.0963595 0.103263 -0.10413 0.107482 0.0203805 -0.0712785 -0.084013 -0.0183621 -0.142063 0.216417 0.137468 0.0963549 0.123445 -0.0726074 0.0252787 -0.0610392 -0.00472801 0.0516213 -0.0507651 -0.296691 0.0502115 -0.102343 -0.0577157 0.10192 0.108194 0.00738155 -0.0520698 0.173602 -0.0529194 -0.0256956 0.0485112 -0.119219 -0.0926071 -0.124349 0.0292149 -0.105606 -0.00797489 0.135207 0.178015 0.0156436 0.121765 -0.0317128 0.194081 -0.0541477 0.0744992 0.0223045 0.166606 -0.0351715 -0.0333494 0.139986 -0.208289 0.0169318 0.0183634 -0.200979 0.0596426 -0.0248486 0.00997986 0.0429962 -0.0421974 0.000605795 -0.0742201
banana	-0.0471356 -0.0397943 -0.000735301 0.0359852 0.192525 -0.0833358 -0.00460301 -0.0146115 -0.0765234 -0.0606295 -0.115177 -0.112272 0.102511 0.0155402 0.0519968 -0.0557781 -0.0260473 -0.190564 0.0750372 0.0339979 -0.0823454 -0.0915777 -0.156294 -0.055005 -0.0343871 0.00466334 0.0699666 -0.0226991 0.0195441 -0.0538137 0.181816 0.0630369 0.0937299 -0.0642319 0.123703 0.054281 -0.026111 0.0371656 0.193754 -0.232942 0.0510137 0.00207088 -0.0144349 -0.00731863 0.00188378 0.156089 0.119965 0.0933711 0.122063 -0.0163019 -0.120028 0.0150036 -0.111251 -0.171312 0.0757019 -0.132949 0.104268 -0.107833 -0.0402917 -0.000951542 0.00106012 -0.135679 0.124837 0.116292 -0.0518246 -0.232906 0.186005 0.0291942 0.128423 0.20352 0.0202226 -0.107635 -0.00198264 0.164635 -0.179326 0.0278745 0.225594 0.0101291 -0.041331 -0.0102791 -0.0817142 0.173149 0.0722967 0.0180833 -0.035983 -0.00807567 0.0440991 -0.0124056 0.160324 0.106997 0.12547 -0.0274898 0.0454006 0.077052 -0.0692279 0.129475 0.106682 -0.07858 -0.0379636 -0.0202115
work	0.0646276 0.0749003 -0.105 0.00750542 0.144116 0.082713 0.0177191 0.0685265 -0.0424345 0.00365617 -0.17825 -0.0740359 0.0196912 0.0783287 -0.132164 0.0204445 0.0785719 -0.161883 0.0117852 0.0163732 -0.0562444 0.0282478 -0.0710679 -0.0710892 0.0122053 -0.13399 -0.0958296 0.0105563 -0.0014178 -0.100598 0.172325 0.0799132 0.0900795 -0.00966631 0.140223 0.122864 -0.1019 -0.0220516 -0.101809 -0.000288204 0.176245 -0.116483 -0.0812542 -0.12126 0.107525 -0.0334624 0.124925 0.115658 -0.15956 0.0567183 0.0311492 -0.100758 -0.037853 -0.170626 0.0756454 0.0556076 0.0138025 -0.377545 -0.10508 -0.0599062 -0.119333 -0.00374727 0.0854672 -0.123468 -0.178863 -0.0709807 -0.0141126 -0.00416318 0.0599034 -0.0749941 0.016898 0.190675 -0.105487 0.0970086 0.0363635 0.0659294 -0.0108342 0.0640095 -0.00937474 0.0630096 0.0140018 -0.0537552 0.0559829 0.081217 -0.108996 0.0966412 -0.0496051 -0.0172888 0.115884 -0.0803395 -0.07021 0.134751 -0.319525 -0.0117676 -0.0540146 0.0380951 -0.00900155 -0.0715674 -0.0624823 -0.0663056
runner	0.114033 0.0936669 0.0579409 0.0277986 0.0572572 -0.0705798 -0.0977282 0.0261191 -0.157769 -0.173835 0.0630041 0.00369635 0.12071 -0.0930036 0.114307 0.126204 -0.0401149 -0.0187631 0.195542 0.0209512 -0.0972432 -0.0264527 0.0322582 -0.0801626 -0.117683 0.0144244 -0.00661343 0.0603624 -0.0926339 -0.163547 0.110132 0.0333025 -0.0344961 0.115866 0.0950034 -0.0123266 -0.0276588 0.0419477 0.016664 0.069381 -0.169732 0.00346636 0.242824 -0.0647275 0.107577 -0.054316 0.170077 -0.0437397 0.0274235 0.146563 -0.107687 0.000171082 -0.0906264 -0.0352255 -0.152371 0.107482 0.0118253 -0.0974919 -0.0785097 0.0276806 -0.0124556 -0.0773726 -0.0149701 -0.158144 -0.202899 -0.0116586 0.141826 0.124367 0.104034 0.0580965 0.139052 -0.085731 0.0325241 -0.0351164 0.0289687 0.129162 0.137886 0.0472421 -0.0407369 -0.127131 -0.0743911 -0.0307866 0.169526 0.151313 -0.0957398 0.0129215 -0.0493052 -0.0797635 0.085993 -0.0566714 0.152506 0.223746 -0.0799451 0.0283229 -0.126923 -0.0195205 0.193418 0.0255289 -0.0796095 -0.14168
jump	0.323325 -0.020995 0.0847829 0.0991577 0.067777 -0.0308696 -0.114119 0.0668676 -0.167065 -0.176256 -0.00233298 -0.0968292 -0.00517388 -0.00828629 0.085628 -0.0229881 -0.0543642 -0.0299053 0.208012 0.115687 -0.0292828 -0.12537 0.0902215 -0.0728379 -0.0849155 -0.141829 -0.0224055 0.109793 -0.113619 -0.137248 0.20548 0.00762621 -0.0192663 -0.0783632 0.213436 0.104211 -0.0242809 -0.0872788 -0.0322322 0.0699015 -0.0469407 -0.115254 0.151454 -0.0794791 0.0529429 -0.0823401 0.0424793 -0.0547681 0.00179003 0.137702 0.0360209 -0.101252 -0.141556 0.0157732 -0.0253905 0.0595959 0.101919 0.000835513 -0.210073 0.127061 -0.00983384 -0.0294623 0.0242249 0.00816992 -0.0308054 -0.0602078 0.0768234 -0.0814032 -0.199325 -0.0379027 0.201979 0.00875264 0.0460435 -0.0653682 -0.0591519 0.00624246 0.132294 0.0414106 -0.079817 -0.12589 -0.0684361 0.0758958 0.145242 0.0802425 0.0072331 -0.049047 0.072404 -0.0989997 0.0554987 -0.186741 0.0695026 0.126391 -0.0296157 -0.0021118 -0.0166898 -0.0429408 0.0581244 0.165861 -0.0383957 -0.103121
beautiful	0.154603 0.0523938 -0.0855445 -0.0748124 0.228187 0.0437321 -0.000193242 0.00852876 0.114618 -0.158034 -0.0748007 -0.0180764 0.107855 -0.0643647 0.0779042 -0.0843146 0.0667041 -0.0442427 0.0668375 0.0483328 -0.169814 0.160152 0.0520161 -0.104384 -0.0208445 -0.0527298 0.110499 0.0816986 0.0767203 -0.017579 0.164948 0.00710279 0.0724535 0.116499 0.104682 0.115831 -0.0873814 0.0620812 0.00179337 -0.118148 0.129167 0.0802834 -0.0162625 0.00342982 -0.0160135 0.0438764 0.194188 0.151523 0.068135 0.164004 0.0683582 -0.137845 -0.164713 -0.000132203 -0.0798231 0.0573898 0.0482327 -0.185373 -0.00700992 -0.221766 -0.0299196 -0.079637 0.00899823 0.104352 -0.0444471 -0.222235 0.0886088 -0.0457321 0.052646 0.00526483 0.0272434 -0.144491 -0.0421706 0.129213 0.221359 0.108569 -0.0280888 -0.00667011 0.0190084 -0.115209 0.0583567 0.0968945 -0.0564227 -0.0463325 -0.0278052 -0.00103348 -0.0299025 -0.0922351 0.0510375 -0.251934 -0.0532564 0.0529722 -0.104741 0.0697764 0.0284157 -0.0175901 0.133677 0.0954146 -0.14823 -0.0114328
chat	-0.0144912 -0.0824456 -0.0437218 0.0228549 0.101859 -0.0153946 -0.00786007 0.0505525 -0.167491 -0.155495 -0.166469 -0.117921 -0.0425734 -0.0999615 0.00623596 -0.007743 0.0817953 -0.0523512 0.0367005 -0.046152 0.0736858 0.0584179 -0.0599037 0.0597273 -0.135013 -0.197309 0.0991588 0.182009 -0.0347224 0.0360678 0.182352 -0.114471 -0.0183919 -0.0368984 -0.109016 0.137903 -0.116687 0.0310039 0.156579 0.0504255 0.0256561 0.0367796 -0.0167605 0.122602 -0.0304736 0.136165 0.129102 0.0274602 -0.0524942 0.12887 -0.150702 -0.0305487 -0.092481 0.147855 0.0208878 0.0813392 0.143296 -0.0662695 0.0999043 0.0878335 -0.0811789 -0.131779 0.10836 -0.0199153 -0.0540961 0.0233554 0.0111979 -0.129413 0.101361 0.0892765 0.115168 -0.0929539 0.0617109 0.178667 0.00614279 -0.0608438 0.19911 -0.134378 -0.142088 0.0108222 -0.00636217 0.0362431 -0.0272102 0.0353559 -0.150705 0.187014 -0.0462339 -0.137843 -0.012134 -0.0953329 0.0301183 0.209714 -0.245835 0.0572964 0.0235431 0.00171914 -0.0660158 0.135892 0.0469882 0.0497593
email	-0.0416603 -0.0327219 -0.0655647 0.0217817 0.146209 0.0174851 -0.043953 0.0150272 -0.0970673 -0.0136762 -0.0979657 -0.166494 -0.0302953 -0.0833108 -0.0218208 0.0481247 0.00968267 -0.115897 -0.0317607 -0.0199567 -0.0346402 0.0291757 -0.0016353 0.0300568 -0.0605535 -0.250575 0.137494 0.178866 -0.118006 -0.0491536 0.131139 -0.109028 -0.0636569 -0.0172482 0.0969069 -0.00953785 -0.156099 0.0453439 -0.0075276 0.016279 0.0417035 0.252499 -0.0557974 -0.0311389 0.0305076 0.116259 -0.0183193 -0.0476006 -0.0584269 0.0584871 -0.170633 -0.0744915 -0.0437851 0.144289 -0.0667953 -0.14264 0.106974 -0.0985175 -0.00530653 0.00626205 -0.109887 -0.164827 0.0270219 -0.0835567 -0.0803304 0.152172 0.0137138 -0.162332 0.0492367 0.0626018 0.133973 0.0907245 0.0283744 0.067264 -0.0491854 -0.15572 0.327607 -0.14112 -0.175705 -0.0557724 0.0774331 -0.0319837 0.00241831 0.114405 -0.0574242 0.148606 0.0446262 -0.0300986 -0.0963153 0.0299517 -0.0780591 0.202416 -0.172239 0.0436579 -0.13695 -0.0167671 -0.0822919 0.00609015 0.024819 -0.018934
chair	-0.0658586 -0.0331398 -0.083557 0.0630445 0.0518665 -0.0375119 -0.0140184 0.0168491 -0.146279 -0.0738112 -0.127871 -0.0548362 0.131937 -0.0421119 -0.249454 -0.00616796 0.100989 0.0565151 -0.0360697 0.0553413 -0.0854741 0.0147671 0.0363809 0.00561038 -0.0858832 0.068349 -0.128348 0.107641 -0.104274 -0.131421 0.0558715 0.0113589 0.10516 0.167111 0.354155 0.138258 -0.00223973 -0.0459997 0.182245 -0.0812437 -0.123599 -0.0414277 0.19625 -0.073845 0.0630904 -0.0816098 -0.0645071 0.0464636 -0.03399 0.0495879 0.0537466 -0.0235223 -0.00736665 -0.041653 0.0701116 -0.0692065 -0.147347 -0.106388 -0.0156609 -0.0842616 -0.0618754 -0.0867726 0.121272 -0.0715447 -0.0882785 -0.047801 0.016965 -0.0605869 0.0817404 0.0619672 0.0652308 0.116446 -0.174232 -0.0578358 -0.0949305 -0.124939 0.053853 -0.126348 -0.0413273 0.120489 -0.127985 0.0985944 -0.0499167 0.0314932 -0.0844957 -0.103836 -0.0223563 -0.0311399 0.217345 -0.0751448 -0.0492605 0.0684543 -0.257256 -0.115245 0.0137 -0.114006 0.055627 0.121171 0.00537295 -0.067385
book	0.0144241 -0.00993797 -0.00554806 -0.0140906 0.068853 0.0217788 0.0908974 0.134124 -0.0214935 -0.0635406 -0.136712 -0.093599 -0.111122 0.00786525 -0.0240068 -0.0621027 0.0883754 -0.151819 0.0860667 0.00287771 -0.0809818 -0.138985 -0.10746 0.0712352 0.123795 -0.119685 -0.0265921 0.0606153 -0.150445 -0.160933 0.0606626 -0.0122377 0.0251905 0.0142782 0.167378 0.0940579 -0.149533 -0.0329985 -0.0728785 -0.0371585 0.254944 -0.058008 0.0623891 -0.0439479 0.0993674 -0.0928731 0.0939563 0.0420539 -0.0371267 0.101083 -0.103231 -0.0358314 -0.032306 0.0797403 -0.099992 -0.0157664 0.0161927 -0.28297 -0.349407 0.00499536 -0.161665 -0.209381 0.0288752 0.0399175 -0.174689 -0.137031 0.0176987 0.00171841 -0.00539928 0.0774288 0.0350666 0.0775141 -0.0110119 0.0497608 0.0611848 0.0177798 -0.0481076 0.0119294 0.0309959 0.0296299 -0.0530142 -0.071986 -0.0061533 -0.0342326 0.0593526 0.0627742 0.00466503 -0.0795354 0.0945519 -0.0872005 -0.0340723 0.189929 -0.262338 0.0200348 -0.104351 -0.00134301 -0.0040056 -0.143463 -0.0182935 -0.114981
compelling	0.132574 -0.0309669 0.0936955 0.0681097 0.187558 0.0556233 0.0476834 0.108616 0.0329996 -0.0340076 -0.0905027 -0.0255271 0.0322752 -0.120181 -0.00856378 0.0518516 0.0829047 0.0347505 -0.110989 -0.0230436 -0.262667 0.0101052 0.0398817 -0.0427203 0.138735 0.0691093 0.0601849 0.00556908 -0.0592389 -0.0236403 0.261653 -0.114191 0.103197 0.0159467 0.0918552 0.0546587 -0.0312579 0.102804 -0.0048948 -0.0371431 0.247771 0.0696922 -0.152776 -0.014832 0.0523397 0.0113188 0.0822546 0.0579895 -0.0242904 0.179108 -0.0251551 -0.0600818 -0.0910369 0.13763 0.0352272 0.00642503 0.117348 -0.172108 -0.0620054 -0.0302226 -0.152377 -0.0128782 0.056125 0.103506 -0.0612019 -0.0125098 0.102076 -0.0290478 0.186689 -0.0695334 -0.0267912 0.193324 -0.140002 0.0319959 0.0403048 0.0827997 -0.00807987 0.0311752 0.104696 -0.0429835 0.0596764 -0.161844 0.0850359 0.00553334 -0.0547082 0.0932964 0.0953426 -0.0932859 0.0602688 -0.0186071 -0.146397 0.0651088 -0.267605 0.120876 0.164718 -0.0160577 -0.0876879 0.114791 -0.138249 -0.0716498
convincing	0.0686989 0.011176 0.0969281 0.00302291 0.107346 0.0819733 -0.0812915 0.127434 -0.0211861 -0.056759 -0.0944595 0.0350063 0.108413 -0.0825261 -0.0849719 0.0530277 0.0738644 0.0380171 -0.0955521 -0.0850474 -0.227287 -0.0230964 0.0781866 -0.107912 0.0337655 0.0535055 0.0343702 0.0243107 0.0315019 -0.0237395 0.278467 -0.0165425 0.0906005 -0.0618897 0.196419 -0.0384148 -0.0235402 0.0762483 -0.0147085 0.0131149 0.127521 0.101596 -0.0519336 -0.120888 -0.0109693 -0.0103641 0.0984633 0.129155 0.0319826 0.18758 0.0384301 0.00799594 -0.129286 0.212157 -0.11735 -0.0110002 0.0646436 -0.0565577 -0.176152 0.0123004 -0.0685228 -0.00431736 0.0452814 0.0299313 -0.0659326 -0.0607275 0.171056 0.0410443 0.173524 0.0268142 -0.0780027 0.038704 -0.197095 -0.0567226 -0.0603988 -0.0108745 0.0291067 0.0635161 0.0578937 -0.125941 0.145783 -0.059862 0.152773 0.0317533 -0.205521 0.212119 -0.0214002 -0.11861 0.0491741 -0.0506658 0.0033402 0.0470169 -0.208085 0.0982669 0.0992954 0.044707 0.0678888 0.0958847 0.00143456 -0.225524
hundred	0.0056178 0.193915 0.109702 0.0104051 0.0812529 -0.0966775 -0.0745023 -0.0550396 0.0420146 -0.144839 -0.0237634 -0.104853 0.160702 0.0680971 0.0542876 0.0686449 0.246785 -0.143523 0.102957 0.0308507 -0.0699781 -0.0699549 -0.11879 -0.087642 0.0858319 -0.0486273 -0.0689978 0.0119699 -0.0722444 -0.0607441 0.0560829 0.166851 0.0701925 0.128905 0.298342 0.0907324 -0.258238 0.112567 -0.0713277 -0.077309 0.112695 -0.0447523 -0.115967 -0.0192292 -0.0554534 -0.0222133 0.00344371 0.220126 -0.146572 0.0773973 0.0147984 -0.0864641 -0.108978 0.0127602 0.026997 0.0354206 -0.0479185 -0.059496 -0.156641 0.208841 -0.0314147 -0.0205034 0.0835063 0.0144034 -0.152721 -0.139772 -0.0473055 0.021168 0.0595535 0.0969909 0.130001 -0.0154912 0.142791 0.033601 0.10627 -0.0570106 0.072658 -0.0539204 -0.0135097 0.000854187 0.0260737 0.08571 0.0123798 0.107426 0.0389135 0.0828679 -0.110114 -0.0976019 0.13886 -0.0722358 0.0539625 0.078217 -0.0908386 0.0529471 -0.0358236 -0.0458733 -0.0273087 -0.142211 0.0386164 0.110984
very	-0.00814362 0.102708 0.0743799 0.0752502 0.210567 0.123242 0.0240944 -0.0430441 0.00904926 -0.162255 -0.0347201 0.0521342 0.111797 -0.100506 0.00945725 0.102845 0.00192685 -0.0519171 0.045015 -0.0999619 -0.0871442 -0.0199903 -0.00652719 -0.164771 -0.0346365 -0.172605 0.135583 0.067501 0.0828969 0.0261135 0.191725 0.0603684 0.0482213 0.0228496 0.149177 0.0160351 -0.0609265 0.152281 -0.0225693 -0.130039 0.0398162 0.0934124 -0.118016 -0.0863354 0.191055 -0.0926244 0.0400707 0.128128 0.0624252 0.155354 0.0383637 -0.0622646 -0.105763 -0.0791815 -0.013158 0.124185 0.0622461 -0.247141 -0.0370567 -0.00580297 -0.0329887 0.0346732 0.114346 0.0695639 0.024975 -0.198991 0.157532 -0.0254764 0.0993557 0.0148491 0.0507818 0.0770709 0.0304331 0.312656 0.121807 0.0391547 0.0265808 0.131335 0.0463845 0.0430217 -0.107829 0.0597392 0.0903941 0.0653371 -0.0535226 0.0480774 -0.00775463 -0.11563 -0.0829065 -0.172264 -0.0431272 0.0620605 -0.171451 0.0727859 0.0926351 0.0590196 0.102826 0.091674 0.0102068 -0.0878659
plane	0.104058 -0.032927 -0.0474236 0.139811 0.0834961 0.0023964 -0.107688 -0.0335209 -0.0856713 0.103136 0.00345133 0.119205 -0.11804 -0.0259671 0.0319528 0.00136817 -0.00670091 0.0821176 0.112811 0.0445771 -0.189143 -0.0544062 0.0323782 -0.0725738 -0.163937 -0.077851 0.0238163 -0.0707079 0.130331 -0.167871 0.145356 0.171403 0.101195 -0.104794 0.24765 0.0803553 -0.229943 0.0226587 -0.00762473 -0.277946 0.0203095 -0.0593113 -0.0152922 -0.0143469 0.0402642 0.0268534 -0.0310687 -0.0148618 -0.0621907 0.106536 0.0620478 0.118425 -0.081559 0.0313621 -0.00429052 0.0569688 0.062783 -0.0705778 -0.183822 0.015323 0.0696666 -0.101679 -0.0283696 0.0395036 0.00674325 -0.168809 0.047089 -0.0224935 -0.0877359 -0.0273154 0.113953 0.101227 0.00481677 0.0760875 -0.0877774 -0.0801419 0.177716 0.093642 -0.170823 0.0493804 0.121069 0.0423467 0.0346386 -0.0441882 -0.159464 -0.0648987 0.104081 -0.0889922 0.128747 0.0307856 0.0145823 0.24564 0.114505 -0.0643549 0.0677529 0.196344 -0.0210576 0.0143313 0.0212807 0.0592571
grass	0.0472682 0.0846393 0.0180918 0.0899615 0.129749 -0.081944 0.0163485 0.0694811 -0.0440467 -0.128751 -0.132195 -0.10996 0.0999912 0.0339145 0.0329889 -0.000503389 -0.0214799 0.0505382 0.241521 -0.110047 -0.0667584 0.0530893 -0.0851846 0.0409797 -0.0485075 -0.306098 -0.0782885 0.0167016 0.0605411 0.11953 0.133922 0.0579757 0.0783729 0.0263359 0.251268 0.0418398 -0.00493611 0.0716451 0.0677875 -0.122341 0.0759077 0.0291653 0.0703714 -0.0539855 -0.0567524 0.0652963 0.153239 0.0958121 0.0762143 0.085814 -0.105862 -0.00471339 -0.0220292 -0.0924209 -0.00405271 0.0273713 0.054056 -0.0672495 -0.0690275 0.0133872 -0.0434032 -0.134517 -0.0261494 -0.165649 0.0395446 -0.163392 0.197563 -0.117589 0.131235 0.0636781 -0.119829 0.0364278 0.159832 0.0127032 -0.0142017 -0.0238535 0.0856996 0.0328244 0.0589086 -0.0617642 -0.107814 0.26792 0.0472258 0.0691723 -0.00961384 -0.209809 0.107708 -0.0178099 0.19449 -0.0693216 0.116209 -0.00322997 0.0204242 0.135669 0.00853939 -0.0705479 0.0966111 0.0996346 -0.099648 -0.0126622
encode	-0.0595144 -0.0561005 -0.0603049 0.198405 0.069266 0.0764434 -0.0328852 0.0985288 0.0615105 0.128826 -0.0695464 -0.268451 0.109056 -0.200813 0.0331562 -0.0587265 0.0413992 -0.0882404 0.0663889 -0.060049 -0.102862 0.0879091 -0.18027 0.0118229 -0.0332952 -0.170751 0.0368714 -0.00329533 0.182451 -0.0306476 0.0388835 0.028721 0.112468 0.0103681 -0.0520546 0.152387 -0.0653476 -0.0474366 -0.0510929 0.136535 0.027161 0.076057 -0.0296295 -0.0301097 -0.0360875 -0.0029964 -0.0186546 -0.0781769 -0.00243046 0.193804 -0.107038 0.0844371 -0.185651 0.0518669 0.118258 0.0783119 0.114321 0.0400914 -0.0797841 0.0551601 0.00716562 -0.169647 -0.103448 0.03903 -0.14008 -0.112145 -0.0625185 -0.132803 -0.131931 -0.0100142 0.176628 0.251504 0.0741544 0.105024 -0.0605612 -0.0962729 0.201904 0.0449999 -0.0813953 0.116761 -0.06429 -0.0162216 0.0665783 0.170138 -0.0662232 0.110584 -0.000234059 0.0712247 0.0998895 -0.0985921 -0.0196386 0.0015242 -0.100408 0.0446347 0.011865 0.0302396 0.128329 0.0188173 0.0246306 -0.093491
network	-0.020078 -0.198584 0.000521545 0.0686027 0.0624326 0.109749 -0.025808 0.152889 -0.179297 -0.0354175 0.0674038 -0.107131 0.073511 -0.0232779 -0.0232708 -0.0596957 -0.0410451 -0.0678461 0.0486952 0.0266296 -0.0393328 0.131088 -0.0666067 0.0239435 -0.299687 -0.0680035 0.133607 0.100692 0.0126049 -0.0525931 0.174999 0.0357047 -0.0230115 0.150015 -0.0145882 -0.0986024 -0.168806 0.0280796 0.064136 0.0354579 0.0567214 -0.104952 -0.161454 0.104814 -0.0462462 0.0588715 0.00607169 0.0440872 -0.0892982 0.137919 -0.15056 -0.192464 0.00415911 -0.141215 -0.0453286 0.0673248 0.149014 -0.109825 0.0435737 0.0736782 -0.132334 -0.0432678 0.0868408 -0.0314744 -0.103966 0.049024 -0.00848445 -0.0123977 0.10227 0.162802 0.0981408 0.193103 0.0110784 0.0637373 0.0426618 -0.0285781 0.221476 0.0730451 -0.0944857 0.0327203 -0.0926666 0.0317965 0.0793433 0.181958 -0.109643 0.0373475 0.145786 -0.02791 0.110426 -0.0976186 -0.039189 0.15245 -0.14357 -0.0655516 -0.0510011 -0.0266685 -0.0427378 -0.0344161 0.127844 0.0965621
football	0.014742 0.0383002 0.0322341 0.0393411 -0.044203 0.1054 -0.0146391 0.064423 -0.0486807 -0.185747 0.0707009 -0.14995 -0.000363773 -0.146444 -0.0193592 0.076076 0.049486 0.0579212 0.0307508 0.0271553 -0.00769821 0.124256 0.0378314 -0.123788 -0.129375 0.0143348 -0.0161164 -0.0908931 -0.0768131 -0.135854 -0.0014613 -0.0912957 -0.0190749 0.043363 0.288236 -0.0482025 0.00339743 -0.0274941 0.143417 -0.0547507 0.043119 0.0453478 -0.000117649 -0.0630176 0.0626601 -0.095348 0.123949 -0.123523 0.205569 0.0645657 -0.0863145 -0.0954298 0.0132192 0.0825485 -0.0383564 0.176916 0.105779 -0.0417923 0.181046 0.145279 -0.186565 -0.0364051 -0.0349624 -0.0882043 -0.0700273 -0.0586995 0.0682529 -0.0216644 -0.0565582 0.0604585 -0.0554172 -0.101281 0.00749689 0.0251255 0.0975929 0.140596 0.190651 0.0544064 -0.0280783 -0.00741353 -0.0194204 0.0520039 0.119337 0.0241617 -0.123373 0.0329561 -0.0239958 -0.0456458 0.206873 -0.108687 0.158181 0.247686 -0.0656615 0.188034 -0.111306 -0.0738403 0.187743 -0.0650941 0.146869 -0.100137
man	0.104408 0.0211257 -0.0239513 -0.0706862 0.0892798 -0.11027 -0.0668892 0.0582726 0.00425686 -0.121692 -0.104384 0.1007 0.124616 -0.0672137 0.0319059 0.104344 -0.0263177 0.0224602 0.14415 0.0255573 -0.0812 0.0801969 -0.14077 -0.067682 -0.0840679 0.0505346 0.134275 0.020156 -0.0545961 0.0540444 0.233162 0.0276996 0.00398611 0.0974876 0.157886 -0.0258144 -0.0828295 0.0481638 0.0752227 -0.045568 0.0984406 0.00351117 0.0611631 -0.106126 0.199969 -0.0924852 0.172205 0.147603 0.0993783 0.132222 0.116453 -0.100502 -0.0845896 0.0613667 -0.000413062 -0.0400158 0.0794542 -0.235181 -0.268708 0.0826734 -0.00659715 -0.171597 0.10214 0.0988775 -0.11819 -0.183293 0.0940574 0.0100084 -0.0466786 0.0186751 0.0384199 -0.0624152 -0.160459 -0.046866 -0.0301439 -0.0570524 -0.0392 0.00231806 -0.124627 -0.0429898 0.101741 0.117498 0.152538 0.0278116 0.0220992 0.0347873 -0.00562904 -0.115348 0.121656 -0.158689 0.0273075 0.0438258 -0.256427 0.066652 0.0767045 0.0102961 -0.0503606 0.0698235 0.00996703 -0.0498176
facebook	0.0300517 -0.0458865 -0.0999049 -0.038342 0.188798 -0.0355863 -0.0964822 0.0980793 -0.104424 -0.0828521 -0.12225 -0.181129 -0.0833289 -0.0617995 -0.0752491 -0.0100394 0.0870865 -0.0344155 0.0576104 -0.0424815 -0.0851257 0.144922 0.0744894 -0.0563322 0.00135255 -0.154067 0.0962179 0.10559 -0.2572 0.0632231 0.019347 -0.0501421 -0.0932173 -0.0953198 0.0807915 0.0512631 -0.108296 0.0407509 -0.0061564 -0.0625893 0.0208076 0.188029 -0.0774031 0.0868811 0.0369293 0.0559622 -0.0126736 0.0664519 -0.0911293 0.0687476 -0.158576 -0.0884629 -0.0199664 0.0246836 0.0115527 -0.0478595 0.118955 -0.021748 -0.00899559 0.0625208 -0.166387 -0.188176 -0.114709 -0.0116497 -0.107664 0.142935 0.0423633 -0.0966451 -0.0198766 0.0443458 0.167959 -0.0662361 -0.0440156 0.113749 0.00887259 -0.0265217 0.348218 -0.113061 -0.151992 -0.0528671 0.122044 0.0134129 -0.0113577 0.210468 0.0111674 0.12881 0.142289 -0.0775683 0.0214876 0.0808064 -0.0721211 0.0833155 -0.169511 0.041291 -0.033177 -0.126803 -0.0739902 0.0308151 0.0496905 -0.0257242
window	0.0315202 0.0404375 0.0139858 0.132716 0.00302803 -0.0310411 0.0416444 -0.0405456 -0.0731822 0.027208 -0.0655252 -0.000365069 -0.14057 -0.117926 -0.0568192 -0.125675 0.0227183 0.0131367 0.0802271 0.182432 0.0605679 0.040528 -0.0667937 -0.1644 -0.0718837 -0.183184 0.0868432 0.136533 -0.118806 -0.048071 0.0303849 0.0129406 0.0120929 0.0392215 0.0809755 -0.0700731 -0.0248616 0.10272 0.191369 -0.112031 0.0232079 0.102139 -0.00137888 -0.164922 -0.0823312 -0.0188238 0.0671894 0.168778 -0.189678 0.158824 0.0602952 0.162511 -0.031937 0.0339742 0.098739 0.0625138 0.146424 -0.0502612 -0.0297692 -0.145586 -0.226426 -0.058057 0.0368759 -0.0368181 -0.107676 -0.017289 -0.028891 -0.175966 -0.0612577 -0.105415 0.0510607 0.0079413 -0.0352829 0.0527341 0.0209302 -0.121578 0.276786 -0.00252187 -0.0851156 -0.0882586 -0.14098 0.110887 -0.119014 0.0741548 0.0281311 0.170504 0.048299 0.0379314 -0.01889 -0.0512043 -0.0966329 0.207756 -0.135513 -0.00986866 -0.107924 0.0297196 -0.02101 0.18992 -0.0970004 -0.015429
tiger	0.0420839 -0.046227 0.0975495 0.153758 0.156793 -0.0795489 -0.128424 0.0218096 -0.119114 -0.106891 -0.144035 0.0647735 -0.0109524 -0.080547 0.0357672 -0.00600518 -0.0154541 0.0730642 0.189601 0.0752843 -0.293158 0.245404 -0.186248 -0.238262 -0.190642 -0.065447 -0.0754818 -0.0313473 -0.00601225 -0.0144043 -0.0166763 0.0344018 0.0265409 0.0351162 0.172383 -0.118676 -0.0633459 0.0534258 0.0416032 -0.0191747 0.0763039 -0.135899 0.119606 -0.0966475 -0.146213 -0.052332 0.0135779 -0.0465591 0.134781 0.0695233 0.00506461 -0.0387316 0.0129161 0.0958957 -0.0326569 0.17477 0.0438357 -0.10254 -0.0155797 0.0619649 -0.0704648 -0.0985194 0.0365197 0.0338386 0.0167974 -0.0582149 0.220361 -0.0211108 -0.090331 0.216107 -0.11635 -0.0732924 -0.110014 0.0396456 -0.0192266 0.116349 0.0303521 0.0683885 0.0373906 0.00505091 0.0282419 0.102236 0.0771478 0.0926167 0.0406884 0.0399498 -0.134745 -0.102543 0.07766 -0.0937226 0.0567376 0.105321 -0.0160325 0.0732355 -0.0930529 0.0152368 -0.0117502 -0.120294 0.0991484 -0.0874081
music	0.199864 0.0924664 -0.0673876 0.0542612 0.199205 0.251098 0.0182243 0.0526433 -0.0138672 -0.22242 -0.0489792 -0.0997467 0.00266137 0.0388895 -0.0480206 0.00210087 0.142403 -0.0772009 0.0385353 0.163902 -0.0410459 0.129195 -0.0622887 -0.144709 0.00713766 -0.0914487 -0.0886194 0.155874 -0.0525553 -0.137377 0.100715 0.0493136 0.0715101 -0.0387205 0.148316 0.0892565 0.0488292 -0.133073 -0.00862557 -0.0356072 0.191717 -0.0921454 -0.00214434 0.133651 -0.0563877 -0.0209511 0.0949394 0.0406189 0.0282364 -0.0477476 -0.154815 -0.122751 -0.100009 0.0435494 0.0567957 0.0112369 0.0170059 -0.210309 0.0425944 0.0589042 -0.103152 -0.14127 0.167521 0.0315744 -0.0803792 0.00544727 0.0500023 0.00681253 0.145591 -0.125787 0.0827756 0.0656051 -0.12226 0.0804671 0.099066 0.104899 0.188132 0.0315134 0.0333643 -0.0404841 0.00192954 -0.0777367 -0.0520437 0.127536 -0.110097 0.0498968 0.122842 -0.0767703 0.111169 0.00845328 -0.119563 0.0155898 -0.144742 -0.0730359 -0.0283465 0.126313 0.161147 0.00725835 -0.03034 0.037314
philosophy	0.0848984 0.00947246 -0.245023 0.0596962 0.0507177 0.111625 0.0667382 -0.00766289 -0.0151469 0.013191 -0.0781777 0.00105719 -0.0779362 -0.0217287 -0.0765436 0.0190615 0.0495457 -0.0121116 -0.0637925 -0.0809746 0.00246448 0.0276787 -0.0310171 -0.0813657 0.107933 0.033022 0.00940089 -0.075332 -0.0764925 -0.148969 0.0529521 -0.0783978 0.109001 0.0838169 0.181439 0.0395286 -0.0106226 -0.077252 -0.0860394 -0.0824772 0.19562 -0.0331151 0.0534943 -0.0585966 0.0605828 0.0178927 0.0756322 0.0196533 -0.0665773 0.0413134 0.0079001 -0.141934 -0.0030918 0.0247316 0.00798895 0.0232197 -0.0508102 -0.266365 -0.0722941 0.0550525 -0.0540776 -0.122063 -0.0108319 -0.0640398 -0.0581798 -0.0870174 0.0769491 -0.0979836 0.0322641 0.0659342 -0.020317 0.140208 -0.207942 -0.0927244 0.185478 0.11361 0.0958539 0.0160708 -0.106458 0.103596 -0.13391 0.00893264 -0.0102976 0.0807422 -0.0780248 -0.164503 0.098399 -0.160295 0.0434089 0.0548531 0.0296109 0.0626375 -0.298062 -0.267994 -0.0462913 0.0857709 0.074455 -0.00578699 0.117996 -0.277931
psychology	0.02153 -0.0545899 -0.091993 0.0319563 0.10613 0.184659 0.00999404 0.0652504 -0.00205054 0.0274323 -0.10064 0.110087 -0.0802211 -0.0396579 -0.0879566 0.081833 0.177687 0.0275559 -0.0180912 -0.09809 -0.0461028 0.0465905 0.00209422 -0.0407246 -0.018207 -0.0108701 0.0183104 -0.0890285 0.0117358 -0.157802 -0.0200962 -0.315675 0.150171 0.0672418 0.162848 0.130043 -0.0704805 -0.0912304 0.0319306 -0.070027 0.157394 -0.0832467 0.0172204 -0.0179114 0.000998066 0.0370016 0.0116989 -0.13349 -0.0449372 0.0484441 -0.0454781 -0.126537 -0.084595 0.0230044 0.0404414 0.119981 -0.0180185 -0.184687 -0.0603025 0.0540889 -0.0906868 -0.132101 -0.068585 -0.0363274 -0.0617895 -0.0525177 0.028655 -0.0489315 0.0103747 0.108647 0.0619384 0.0736005 -0.244384 -0.101276 0.0664085 0.00290686 0.118059 -0.0791213 -0.0173212 0.126675 -0.101428 -0.0760047 -0.0421951 0.19265 -0.0817517 -0.133748 0.196928 -0.0866237 0.0740843 -0.0143484 -0.0664572 0.0457969 -0.238925 -0.121804 -0.0500056 -0.0545094 0.0456101 -0.11316 0.161052 -0.22694
money	0.125039 -0.0534424 -0.109035 -0.104773 0.0317713 -0.157056 -0.0715457 0.0704022 -0.19756 -0.209327 -0.0552967 0.0237049 0.138674 -0.0193928 -0.011796 0.144827 0.00779447 -0.182499 0.0524575 0.173241 -0.140261 -0.0183987 -0.0784684 -0.104826 0.0311205 -0.145153 0.00380848 -0.0651451 0.0453869 -0.116836 0.157993 0.183506 -0.134907 0.0793482 0.263567 0.00255447 0.0307438 0.07139 0.0724721 0.0371707 0.206751 0.0910066 0.0596204 -0.0723064 0.0402745 0.134131 -0.0356619 0.013051 -0.100339 0.00699441 -0.0652633 -0.129247 -0.113097 -0.108905 -0.0539457 -0.18499 0.0879337 -0.154367 -0.121553 0.0345724 -0.216229 -0.0799717 -0.00459947 -0.0710873 -0.0995395 0.00837516 0.0650377 0.0307451 0.168686 0.00877952 0.0343492 -0.0892681 -0.0871974 -0.0376854 -0.0833615 -0.0650344 0.0507528 -0.0351153 -0.0165288 -0.047584 0.044726 0.00910385 0.139459 0.0380397 -0.0789576 0.134774 -0.0865152 0.0608347 -0.0369653 0.0350082 -0.0192567 0.0835193 -0.0990099 0.00925017 0.00131409 -0.0177554 -0.0374389 0.0228282 0.147978 -0.154045
paper	-0.0409302 0.0307559 -0.0611979 0.0322545 0.0121898 -0.0771279 -0.0647361 0.106846 -0.0572295 -0.0529671 -0.104715 -0.104335 0.0173763 0.0370352 -0.200055 0.0527629 0.107826 -0.0906564 0.00631609 -0.0525397 -0.227283 -0.116514 -0.0838671 0.103864 0.106219 -0.158451 -0.0899713 -0.0396052 0.00160557 -0.192385 0.0869099 -0.126478 0.0184069 0.0696818 0.201618 0.0780885 -0.0942343 -0.0416296 -0.0232244 -0.108715 0.0636988 -0.00249502 0.0426957 -0.0181373 0.0614343 -0.00921651 0.0588427 0.135006 -0.0388341 0.041205 -0.012173 -0.0177851 -0.0448374 -0.0456526 -0.0740933 -0.0470058 0.041396 -0.233685 -0.224773 -0.0851748 -0.104445 -0.152475 0.0700891 0.02868 -0.0455299 -0.0739813 0.172034 -0.0221139 0.0509897 0.181515 -0.0369768 0.269707 0.154637 0.181389 -0.139193 0.0722205 0.151586 -0.0113308 -0.0838075 0.0186047 -0.0362254 -0.000446324 -0.0639412 0.0125702 -0.073334 0.0721807 -0.066695 0.0175974 0.0632397 0.0656617 -0.140309 0.100745 -0.155475 -0.0506345 -0.13523 -0.159177 0.0746777 -0.0762708 0.0935535 -0.036038
student	0.0761322 0.102337 0.0200309 -0.0291666 0.07341 0.0821877 0.0229927 0.0656572 -0.0554374 -0.189465 -0.245445 -0.0453003 -0.0975436 0.102593 0.0293491 0.0487483 0.293527 -0.161801 -0.00848581 0.0390313 -0.0846154 0.021707 0.113327 -0.0728708 -0.0585716 -0.118634 -0.040281 -0.140859 -0.13161 -0.147465 0.0363107 -0.0826083 0.0317254 0.00128595 0.198988 0.00098997 -0.0682803 0.0358893 -0.114361 -0.0884021 0.00215142 0.0577574 -0.0318842 0.0471426 -0.0017811 0.043967 0.0732679 -0.0648091 -0.0161418 0.121983 -0.019531 -0.0966067 -0.0559088 0.110825 -0.0198624 0.0245738 -0.0342866 -0.0832476 -0.00272645 0.050022 -0.17557 -0.109624 0.00622683 -0.178055 -0.116503 -0.017447 0.0363554 0.0110189 0.00290172 -0.0656094 0.182983 0.103162 -0.185625 -0.0678313 0.0718611 0.0364379 0.258213 0.0284374 -0.077802 0.102611 -0.133683 0.0151999 0.0573384 0.134413 -0.0728868 -0.0896967 -0.201659 -0.0246049 0.0332817 -0.0657045 0.0238325 0.0220282 -0.191889 -0.0510756 0.0768993 -0.00838578 0.0609212 0.0358197 0.241456 -0.020373
clock	0.0427832 -0.0142677 0.01339 0.0381183 -0.176023 0.0254995 -0.139837 0.00318615 -0.0688775 -0.0698977 0.0981558 -0.098483 0.0177579 -0.0505263 -0.0277781 -0.00915159 -0.0173237 -0.0232863 0.135462 0.104481 -0.0592764 0.148771 0.00286989 -0.168425 -0.125364 -0.114171 -0.00668699 0.0237298 0.0292379 -0.169364 0.139443 0.029244 0.140318 0.193293 0.0332376 0.0781834 -0.0168015 0.0968941 0.044526 0.0683502 0.174807 -0.0370762 0.021588 -0.0834401 0.0182876 -0.0374952 -0.0762368 0.136319 -0.0655404 0.152262 0.0429406 -0.0240697 -0.165893 0.0286063 0.0113471 0.00128874 0.083177 -0.0213169 -0.0729963 0.0497632 -0.219842 0.0415733 0.232298 0.0765974 -0.0941276 -0.0767103 0.051359 -0.0659117 -0.0822873 0.147091 0.184257 0.125076 -0.0430633 0.0189319 0.0350697 -0.0146273 0.278475 0.135348 -0.0357997 0.0839837 -0.212851 0.0600964 -0.0824707 -0.0822923 -0.107725 0.0833993 -0.106857 -0.160959 0.0760743 -0.0047821 -0.0891613 -0.0542634 0.0163651 0.0215894 -0.140565 -0.038179 0.0594618 0.0203746 -0.217134 0.0622555
hash	-0.0601772 -0.0841496 -0.107781 -0.0379469 0.0193514 -0.0487201 -0.0203046 0.093809 0.0595966 0.142156 -0.0331867 -0.053156 0.0402314 -0.0589599 -0.0218762 -0.0268376 -0.0545323 -0.167728 0.145167 0.157108 -0.0926005 -0.0651197 -0.153467 -0.0652439 -0.0679015 -0.249192 0.0407392 0.12442 0.110365 0.135487 0.106217 0.098941 -0.0116517 0.0921852 0.0865128 0.032754 -0.0892668 -0.0350637 -0.0664038 -0.1394 0.0128292 0.161503 -0.0403518 -0.0522472 -0.0793069 -0.00235792 -0.0159296 0.0481632 0.101176 0.171164 -0.0784432 -0.0244728 -0.0444071 0.0746418 0.011503 -0.139744 0.204014 0.0635747 -0.0682386 0.166505 -0.13548 -0.0729981 0.0333255 -0.0716466 -0.0728528 0.0663031 -0.0415901 -0.179567 -0.096705 -0.0488283 0.148889 0.102794 0.0115236 0.0562553 -0.109877 -0.0700041 0.264265 -0.0138206 0.0558748 0.057093 -0.0172068 0.0988579 0.113239 0.00346576 -0.167699 0.121036 0.150155 -0.0290297 -0.0870337 0.0360774 -0.016769 0.123108 -0.0438435 0.0204334 -0.104319 -0.132164 0.225072 0.0860497 0.0213611 -0.137025
string	0.0291001 0.230973 0.00942473 0.107084 0.0224166 0.0323494 0.0412692 0.0891865 -0.0792875 -0.0355394 0.0439054 -0.207008 -0.0244745 0.0540595 0.0771213 0.0436217 -0.00673673 -0.158466 0.240795 0.159794 -0.0939629 0.0850592 -0.146397 -0.148178 -0.0388116 -0.0745256 0.0225451 0.0926755 0.0495302 -0.127115 0.0344288 0.148716 0.0919821 0.0894922 0.198993 0.0933967 0.0840043 -0.00653637 0.0617126 -0.105921 -0.0774095 0.00592962 -0.0473649 0.0528345 -0.048929 -0.132215 -0.0150388 -0.0866757 0.0575949 0.0204557 0.0476353 -0.0332204 -0.099125 -0.0112597 0.0886498 -0.00855679 0.155018 -0.0882986 -0.168059 0.00754438 0.0124947 -0.0174052 0.163407 -0.0267657 -0.0854824 -0.01521 0.137009 -0.0512591 -0.0815853 -0.101953 0.120468 0.204066 -0.102443 0.144432 -0.0719967 0.0105205 0.180865 0.0213328 0.144914 -0.00726576 0.105739 -0.0608095 0.0282571 -0.0998174 -0.117686 -0.00280447 0.18159 -0.104521 0.0356547 0.0421879 -0.130619 0.0865381 -0.139396 -0.0438852 -0.0253741 0.0818866 0.227843 0.0082667 -0.0228238 -0.0965982
frequent	-0.137941 0.15105 0.125209 0.0886672 0.229276 -0.00238375 0.0148932 -0.00223331 0.029325 -0.0523333 -0.0221921 0.0567567 0.0865715 0.0158996 0.0143803 -0.00724794 0.0739441 -0.00150895 0.00910491 -0.0284715 0.0690567 -0.0919611 -0.00686802 -0.0044528 -0.0921744 -0.270459 0.0541831 0.186811 0.0202638 -0.0461632 0.239119 0.108802 0.167489 -0.0386034 0.0885319 0.123024 -0.138798 -0.00147213 -0.0549782 -0.0485642 0.151508 -0.0949974 -0.0981737 0.092518 0.199157 -0.0538304 0.00189618 0.00957216 0.0755323 0.0861285 -0.0969818 -0.0539141 -0.0563313 -0.0458672 0.0517881 -0.0437152 0.0853629 -0.0559024 0.0543533 0.0771097 -0.0930528 0.145142 0.0725697 -0.0351398 0.0225577 -0.0788654 -0.0436783 -0.109826 0.143215 0.0922862 -0.0249164 -0.0233684 -0.0556774 0.16746 0.0142813 0.0830137 0.0958856 0.0224323 -0.174854 0.0905122 0.0109887 -0.112724 -0.010904 0.0784079 -0.107147 0.0249178 -0.131654 -0.186521 0.0171041 -0.000526693 0.0297013 0.128401 -0.223226 0.129534 0.010227 -0.169413 -0.222029 0.058456 -0.0659217 -0.0625917
